57 50
*dt_0 0.010592 0.007804 0.009059 0.003052 0.008080 0.007235 0.006346 0.005409 0.003216 0.011296 -0.001615 -0.008385 -0.010193 -0.005478 -0.002445 0.002467 0.007507 0.008574 -0.010609 -0.003891 -0.005275 -0.003981 0.000459 0.007900 0.001025 0.006792 0.000424 0.002695 -0.002486 0.000183 0.004746 -0.000237 -0.009263 -0.005034 -0.008250 -0.009844 0.001162 0.002635 0.008984 -0.005596 0.003499 0.004522 0.007945 -0.007373 -0.002206 0.005605 -0.000500 -0.005231 0.004943 -0.009734
*dt_1 0.000961 0.004596 0.005843 -0.001898 -0.004884 0.004069 -0.008677 -0.003711 0.008959 0.001696 0.002363 -0.008202 0.000682 -0.002852 0.002667 0.000069 0.006871 0.002402 -0.005321 -0.003976 0.009850 -0.004818 -0.007970 0.005806 -0.004098 0.007087 -0.000134 -0.004843 -0.009833 0.001555 0.000336 0.003467 -0.008183 -0.007905 0.004810 0.002179 -0.005359 0.003726 0.004005 -0.011117 0.009752 -0.005901 0.001794 0.004312 0.005085 0.001893 0.005357 0.000744 0.008272 -0.009898
*dt_2 0.007432 0.001860 -0.008498 0.008758 -0.007237 -0.002283 -0.008786 -0.001745 0.005012 -0.002768 0.000609 0.009820 0.008584 -0.006058 -0.006343 0.009092 -0.005119 0.001907 0.007351 0.008237 0.009759 0.009543 0.009283 -0.006457 0.005165 -0.008655 0.000585 0.004836 -0.004855 -0.002133 -0.001128 0.006127 -0.009112 0.001659 0.001215 -0.002611 -0.002159 0.008102 -0.004881 0.000346 0.006752 0.006007 -0.009236 -0.005454 0.006645 -0.010027 0.006839 -0.010002 0.006159 0.001697
*dt_3 0.005941 0.006631 0.008576 0.006406 -0.000957 0.008535 0.000589 0.009079 -0.000410 0.011351 -0.000694 -0.005203 0.006876 -0.004436 0.006274 -0.001568 -0.010317 0.005575 -0.006364 -0.003647 0.000435 -0.000952 -0.008039 0.008187 0.002398 0.007362 -0.001013 -0.007777 -0.000224 0.008648 -0.009281 -0.006398 0.008172 0.007163 0.000471 0.004408 0.000087 0.003565 -0.000305 -0.005316 -0.003573 0.005980 0.004852 -0.001747 0.009671 -0.001336 0.000512 0.003208 0.009889 0.008846
*dt_4 -0.004563 0.006304 0.003807 0.009289 0.000890 -0.003704 0.003669 -0.008759 -0.001389 -0.000345 0.005560 0.001645 -0.000553 -0.004032 0.009239 0.007192 -0.006261 -0.002323 -0.009456 0.008790 0.005839 -0.001536 0.005013 -0.004476 -0.003128 -0.005759 0.002557 -0.012885 -0.003993 0.010683 0.004757 -0.008413 -0.000015 0.008839 0.005038 -0.007893 -0.010440 0.006527 -0.004091 0.001499 0.011056 0.009809 -0.006089 -0.003069 -0.005866 0.007611 -0.000135 -0.006571 -0.004013 0.008765
*dt_5 0.001783 -0.001218 0.004889 -0.006528 0.002535 -0.008443 0.009395 -0.005952 -0.005677 -0.002558 -0.005489 0.006731 -0.001663 0.007943 0.001291 0.004395 -0.001868 -0.004235 -0.002914 -0.007981 -0.001258 -0.001694 -0.010714 -0.006228 -0.007002 -0.007768 -0.004226 -0.006912 -0.004411 0.009685 -0.002707 0.009655 -0.001223 0.005684 -0.005128 0.007116 0.008704 0.005966 -0.004336 -0.009135 -0.001592 -0.006720 -0.000811 0.004097 0.005306 -0.007832 -0.008126 -0.005873 0.004950 0.007151
*dt_6 -0.003300 -0.008451 0.002510 -0.009512 -0.002318 0.001095 -0.010249 -0.006051 -0.004743 0.000890 0.005814 -0.010946 -0.006106 -0.000028 0.005280 -0.005337 0.001846 -0.009115 0.001643 0.004957 0.010350 0.005003 -0.007339 0.002075 0.010292 -0.008827 0.005256 -0.010197 -0.009606 0.002604 -0.011113 -0.001261 0.004440 0.003487 -0.002882 0.004643 0.002314 -0.009439 -0.004191 0.001737 0.006249 0.007602 -0.002878 0.005407 -0.009650 0.005038 0.008685 0.002586 0.001461 -0.006985
*dt_7 0.004071 -0.001193 -0.003261 0.002121 0.002144 0.001097 0.001294 -0.005333 0.003616 0.013084 -0.001514 -0.006788 0.003554 -0.005920 0.005697 0.005256 -0.005502 -0.005052 -0.001222 0.000526 0.007383 0.006568 -0.005752 -0.003108 -0.002232 0.008270 0.007932 -0.011449 -0.003242 0.010292 -0.002304 0.004288 -0.000026 -0.008624 0.003378 -0.007632 -0.008531 -0.012182 0.003470 -0.002363 0.003863 0.000322 -0.008284 0.002647 -0.003251 0.007174 -0.003721 -0.007478 0.010915 0.001545
*dt_8 -0.002808 -0.001865 0.009232 -0.005420 0.001832 0.006048 -0.002481 0.002163 0.007192 0.004968 0.003698 -0.011392 -0.007757 -0.004254 -0.008938 0.008568 0.006770 -0.008748 -0.011269 -0.004710 -0.004585 0.000899 -0.006466 -0.002615 -0.007896 0.007755 0.001019 0.003712 -0.010729 -0.001026 -0.010278 -0.002744 0.009487 -0.006547 0.002668 0.004868 -0.002604 -0.007631 0.002810 -0.008567 0.003733 -0.009224 -0.004457 0.007544 -0.007596 0.004603 -0.000615 -0.006400 -0.002004 0.000603
*dt_9 0.006553 -0.002747 0.005015 -0.007223 0.004246 0.007388 0.005774 -0.000436 0.002765 -0.001981 0.005778 0.004629 -0.005138 -0.000257 0.006386 -0.003541 -0.009964 0.003973 -0.009533 0.005872 0.003597 0.006653 -0.004272 -0.005880 -0.003659 0.002165 -0.002785 -0.001654 -0.004010 0.009442 0.008330 -0.004159 -0.009324 -0.008438 0.002350 -0.003331 0.003888 -0.000761 0.003577 -0.008902 -0.002538 0.001132 -0.003833 -0.006658 -0.003809 -0.000765 -0.009794 0.006676 0.009459 0.001263
*dt_10 -0.000693 -0.000924 -0.006065 -0.009534 -0.007996 0.007182 -0.002948 -0.000440 -0.003155 0.009333 0.008522 -0.007907 -0.004273 0.004241 -0.001918 0.009693 0.007665 0.000384 0.007018 -0.002065 -0.001218 0.006703 -0.004505 -0.008553 0.003222 -0.002074 0.008245 -0.008788 -0.008584 -0.008503 -0.004127 0.002433 0.006178 0.008551 0.003329 -0.007997 -0.007188 0.000582 0.003254 -0.011265 0.000451 0.003331 -0.010615 0.005052 0.000987 -0.007402 -0.008480 -0.002420 0.009976 0.007277
*dt_11 0.005990 0.003292 0.007939 -0.007085 -0.001281 0.008679 -0.008895 0.002614 0.002502 0.003669 0.001667 -0.000756 -0.004934 0.009166 0.004757 0.003988 0.000473 -0.001892 0.006439 0.000043 0.009740 -0.003381 -0.007683 -0.004294 -0.006646 0.010287 -0.001280 -0.012230 -0.004870 -0.001849 -0.007105 -0.002693 -0.002929 -0.002211 0.004426 -0.001609 0.003930 -0.000085 -0.005754 -0.006383 -0.008579 0.009197 0.007886 -0.006404 0.003980 0.004627 -0.008403 0.007128 0.001971 0.007212
*dt_12 0.004024 0.007353 0.002273 -0.008638 -0.000837 -0.008617 0.006731 -0.005381 -0.004705 0.010727 0.007449 -0.004758 0.002746 -0.007595 0.004924 0.010313 -0.006485 -0.004486 -0.009288 -0.002403 0.000142 -0.001909 -0.004364 0.005653 -0.006829 -0.007185 -0.005026 -0.012171 0.002526 0.005382 -0.002726 0.000608 0.000742 -0.009058 0.001260 -0.007387 0.000575 -0.011473 0.005191 -0.006254 0.009730 0.006486 -0.011317 0.006414 -0.001670 -0.003182 0.006127 -0.000856 0.009157 0.006218
*dt_13 0.012468 -0.000349 0.010442 0.009500 -0.011122 -0.000294 0.009065 0.004534 0.001472 0.008201 0.006024 -0.011189 -0.012288 0.000571 0.007596 -0.005799 -0.011185 -0.000087 -0.013776 0.000232 -0.005766 -0.011880 -0.012111 -0.004997 0.005437 0.000128 0.001206 0.001058 -0.008770 0.007196 -0.011195 -0.008584 0.005373 -0.008206 -0.009082 -0.002388 0.000836 0.003424 0.007178 0.001850 0.007061 0.003014 -0.005934 0.010292 0.003089 -0.009133 -0.001347 0.007254 -0.000312 -0.001107
*dt_14 -0.002743 -0.006944 -0.005180 -0.003804 -0.004485 -0.004807 0.002347 -0.001603 -0.004200 0.009372 0.005914 -0.003890 0.000929 0.000428 -0.006346 0.007082 0.003805 -0.008584 -0.001097 -0.005385 0.011055 -0.007969 -0.000134 -0.001280 -0.005167 0.008623 -0.009100 0.006993 -0.007558 -0.003156 -0.003328 0.002295 -0.001133 -0.002945 0.002410 0.009662 0.005676 0.006070 0.003547 -0.011702 0.006125 -0.008057 -0.005954 -0.008654 -0.007990 -0.009197 -0.003676 0.003785 -0.004415 -0.001872
*dt_15 0.004356 0.001919 0.004143 -0.000060 0.008680 -0.003741 -0.010323 0.002115 -0.007758 0.010439 -0.002088 0.009325 0.001479 0.007076 -0.007068 0.008768 -0.003451 -0.009073 0.002511 0.008295 0.000417 -0.002151 0.001632 0.004462 -0.008741 0.003101 -0.008073 -0.008237 -0.008053 0.001600 -0.002119 -0.004983 -0.001299 -0.006074 0.008144 -0.007165 -0.010573 -0.007287 0.001962 -0.009804 0.007406 0.004830 -0.008909 -0.005831 0.001486 -0.004974 0.009325 -0.008951 -0.001099 0.008134
*dt_16 0.009665 -0.004982 0.003418 -0.005461 0.000641 -0.008778 -0.004796 0.002588 -0.004952 -0.003512 0.005320 -0.011049 -0.006484 0.004120 0.007170 0.006394 0.004962 -0.005686 0.002703 0.005949 0.000822 0.003778 0.002963 0.006361 -0.006211 0.009956 0.009503 -0.005829 -0.007407 -0.000133 0.005833 0.001993 -0.003593 -0.009678 0.001833 -0.001653 0.005283 -0.006709 -0.005483 0.001069 0.010087 -0.004424 -0.011893 -0.003760 0.005027 -0.007726 -0.000562 -0.002243 -0.005366 -0.002860
*dt_17 -0.005914 0.007009 0.007054 0.008106 -0.006091 -0.004860 -0.003781 0.001220 -0.006604 -0.003387 -0.008007 -0.002358 -0.002810 -0.000150 0.003090 -0.008086 0.006340 -0.004005 0.006113 0.002474 0.005270 -0.008127 0.007529 -0.002302 0.004763 -0.000700 -0.002180 -0.002551 -0.010088 0.008606 -0.004528 -0.008704 0.006885 0.001652 0.000437 0.007719 0.002648 0.000989 -0.005445 0.003689 -0.000673 0.010693 0.002515 -0.006372 -0.000839 -0.004580 0.006986 0.009696 -0.008312 -0.004394
*dt_18 0.001093 0.000299 0.002696 0.005502 -0.011547 -0.009266 -0.008062 0.000717 0.007433 -0.006965 0.005232 -0.011863 -0.003109 -0.002521 -0.009234 -0.002370 0.000267 -0.008687 -0.000073 0.009019 0.010602 -0.000030 0.003046 0.003339 0.004488 0.008207 -0.000857 -0.009235 0.005052 -0.000527 -0.010192 -0.000198 -0.003912 -0.006088 -0.009733 -0.003259 -0.011083 -0.007659 -0.000215 -0.008877 0.007148 -0.002438 0.001360 -0.006289 0.009913 0.002208 0.002563 0.006844 0.004423 -0.001584
*dt_19 0.008670 0.007681 0.000708 -0.001761 -0.000785 0.000226 -0.010106 -0.003353 0.005120 0.010577 -0.007874 0.003094 -0.008008 0.000699 -0.009031 0.003270 0.004075 -0.004626 -0.004491 0.009076 0.000943 -0.009491 0.000367 -0.006705 0.010006 0.010827 0.000785 -0.001123 -0.008681 -0.007697 0.003549 -0.001707 -0.000484 0.005246 0.009761 -0.000646 -0.009850 0.007525 -0.003060 -0.003026 0.010963 0.003358 -0.004126 0.008837 -0.009071 0.007939 -0.009058 0.005562 0.002308 -0.007185
*dt_20 0.006117 -0.009313 0.009614 -0.007788 -0.007008 -0.008983 -0.009700 -0.001935 -0.007490 -0.002011 0.008185 0.008961 0.000543 0.008984 -0.006357 -0.002245 -0.007633 0.007280 0.004931 0.004781 0.007673 -0.004999 0.008938 -0.005178 0.006096 0.003221 0.000890 -0.000118 -0.008199 0.006336 -0.006856 0.003844 -0.004488 0.005743 0.007978 -0.002062 -0.003293 -0.005714 -0.005823 -0.001015 -0.006212 0.005233 -0.007068 0.005660 -0.004561 -0.009018 0.004657 0.000532 0.009481 -0.004852
*dt_21 -0.001849 0.000887 -0.007358 0.000287 -0.000398 0.007022 -0.003028 -0.001049 0.004544 -0.000083 -0.001960 -0.000624 -0.003345 0.002018 0.001873 0.009694 -0.005083 0.006864 -0.010502 -0.005532 -0.000493 0.001515 0.004027 -0.007246 -0.006707 0.001010 0.010138 -0.011999 -0.006146 0.009683 0.006825 -0.005516 0.005112 0.003168 -0.002277 -0.004376 -0.006161 -0.004050 0.009822 -0.001731 -0.002695 0.001528 0.003942 0.000745 -0.002514 0.005484 -0.001685 -0.007956 0.002541 0.001835
*dt_22 0.010012 -0.002466 0.002643 -0.005462 -0.001417 -0.002821 0.008299 -0.005216 0.007304 -0.003602 0.007715 -0.011552 -0.004718 -0.008104 0.008746 -0.001713 0.004133 -0.006871 -0.008941 0.002542 0.008188 -0.003506 -0.010302 -0.008696 0.003807 -0.008692 -0.008419 -0.011399 -0.004551 0.007302 -0.006427 0.008384 0.007379 -0.001339 -0.009174 0.001025 0.004542 0.002195 0.008109 -0.005844 -0.008211 -0.007139 0.000397 0.008477 0.007959 -0.008947 0.002610 -0.002890 -0.007649 0.000675
*dt_23 0.008607 0.000618 -0.000591 -0.004439 0.005078 -0.010005 0.009697 -0.001622 0.004664 -0.000957 0.004949 0.004304 -0.003316 0.008278 0.004563 0.004667 -0.004324 -0.007363 0.005192 -0.003578 0.005832 -0.005896 0.001537 0.005781 -0.000151 -0.007219 -0.000538 -0.010043 0.005535 0.001987 0.003132 -0.005420 -0.005990 -0.009190 0.005867 0.006635 0.004209 0.005906 -0.007298 -0.000313 0.000641 -0.001995 -0.011085 0.008759 0.006772 0.000421 0.007094 -0.000163 0.009101 -0.001564
*dt_24 -0.008341 0.003405 0.000151 0.002196 -0.002521 -0.010679 -0.000065 0.006411 -0.002690 0.007553 -0.001617 -0.004135 -0.007788 0.003175 0.004576 0.004611 -0.002409 -0.009675 -0.011412 0.010014 0.006427 -0.008615 -0.010835 -0.003900 0.006812 0.010456 0.006240 0.001165 0.004676 -0.000502 -0.005192 -0.004692 0.002602 -0.003142 -0.003883 0.006167 -0.006675 -0.001600 -0.005125 0.005076 -0.001828 -0.007344 -0.010640 0.007050 0.007927 -0.003533 -0.006416 -0.001451 -0.005884 0.001361
*dt_25 0.008873 0.001626 0.002934 -0.004949 -0.006288 0.000416 -0.002203 -0.007136 -0.001904 0.009048 0.000314 -0.009969 0.006548 -0.002650 -0.004666 -0.002108 0.001502 0.004317 0.006548 -0.009727 -0.002758 0.001656 -0.007083 -0.007955 0.003464 0.004418 0.003929 -0.006498 -0.007148 -0.007498 -0.010077 -0.007251 -0.008271 0.004757 -0.000121 -0.000788 0.009267 -0.008145 -0.002843 -0.006867 0.001190 0.002802 -0.007512 -0.006509 -0.003935 -0.003569 0.003591 0.005499 -0.005641 -0.003205
*dt_26 -0.003497 0.001273 0.003620 0.004702 0.004548 -0.000958 -0.003369 0.006761 0.001582 -0.003508 -0.000131 -0.004442 0.003977 -0.008648 -0.005628 0.003347 -0.000083 0.002052 -0.004001 -0.007553 0.009322 0.006242 0.000143 0.002732 0.008749 0.003463 0.007296 0.004849 0.006125 0.002184 -0.011605 -0.004798 0.007807 -0.007230 0.002884 -0.001467 -0.005509 0.006573 0.000103 -0.004211 -0.004339 0.008948 0.000128 0.009455 0.006949 -0.003891 0.002988 0.008482 -0.004636 0.005326
*dt_27 -0.007835 0.004838 -0.001519 0.000408 0.003836 0.007094 -0.005203 -0.004033 0.003478 -0.000485 0.008226 0.002677 -0.010690 0.009754 -0.003149 0.010239 -0.000075 -0.004618 -0.005116 0.010043 0.005830 -0.009532 -0.007705 -0.001070 0.003451 -0.001088 -0.002992 0.003508 -0.009714 0.010067 -0.007339 0.008069 0.002726 0.006801 0.000691 0.007626 -0.003658 -0.002814 -0.004511 -0.000219 0.002343 -0.003046 -0.001104 -0.002256 0.003725 -0.003852 0.003759 0.009565 -0.003687 0.003125
*dt_28 -0.000612 0.005334 0.004681 -0.002030 -0.009505 0.002049 0.000579 0.003227 0.001682 -0.001181 -0.000869 0.004322 0.003345 0.000159 -0.008423 -0.002983 -0.000226 -0.005024 0.000134 -0.006743 0.000016 -0.007068 0.006588 0.009029 0.007409 -0.000277 0.002252 -0.008965 -0.003017 0.007846 0.003009 0.002796 -0.001665 -0.003853 -0.003238 0.002265 -0.001878 -0.010045 0.000185 -0.009460 0.005910 0.002086 -0.010215 -0.000048 -0.008296 -0.001522 0.003488 -0.008521 0.008849 -0.006298
*dt_29 0.006155 0.004862 0.005543 -0.001134 -0.005620 -0.009407 -0.005505 -0.008063 -0.001358 0.005184 0.009125 0.008855 0.008466 0.004074 -0.007676 -0.001895 0.006286 -0.001402 0.008620 -0.004802 0.004214 -0.010287 -0.002529 0.003607 0.003200 -0.004874 -0.002594 0.001265 0.006381 -0.003431 -0.009759 -0.008475 0.008666 -0.005172 -0.009934 -0.001773 -0.004437 -0.001099 -0.005366 0.003465 0.010237 0.003504 0.000548 -0.006124 -0.006555 -0.004204 -0.003808 0.005574 0.009201 0.002193
*dt_30 -0.008357 -0.003328 -0.008245 0.005831 -0.006700 -0.005959 0.001142 0.002093 0.002805 0.005364 -0.004995 0.004167 0.003745 -0.003879 0.003523 0.008950 -0.001073 -0.004461 -0.004701 -0.004064 0.000515 0.005252 -0.001165 -0.003532 0.009788 0.005485 0.002957 -0.008201 0.007855 -0.009846 0.007793 0.003730 0.000910 -0.008007 -0.000798 0.001156 0.008942 -0.003628 0.003569 -0.003565 0.001892 0.007223 -0.002726 -0.005962 -0.003718 0.001266 -0.008699 0.009605 -0.001298 -0.009212
*dt_31 -0.008677 0.007739 -0.003103 0.007236 0.004224 0.002856 0.005085 -0.005078 -0.008956 -0.000914 -0.000690 0.008825 -0.009727 -0.007712 -0.001606 0.001164 0.004697 -0.006679 0.004618 0.000910 0.005162 0.002968 -0.002762 -0.005071 0.000330 0.008301 0.005257 -0.001371 0.006906 -0.000777 -0.008965 0.008633 0.005577 0.004667 0.005451 0.009020 -0.006664 -0.009689 0.000868 -0.004941 0.002065 -0.000321 -0.003783 -0.000410 -0.000469 0.009177 -0.005051 -0.002919 0.008752 0.003302
*dt_32 -0.002668 0.005282 0.009833 0.008347 -0.009672 0.000773 0.006870 0.008335 -0.003073 0.002701 0.004872 -0.002121 -0.007554 -0.007662 -0.003813 0.008908 0.002191 -0.010013 -0.009515 0.006057 0.005292 -0.000389 -0.010489 -0.006670 -0.000897 0.001721 -0.003256 -0.009902 0.004563 -0.003272 0.005085 0.006500 -0.001499 -0.003255 -0.008043 -0.008594 -0.004387 -0.006329 -0.003049 -0.006823 0.000898 0.000010 0.005706 -0.001560 0.003079 0.005141 -0.002055 -0.005011 -0.002039 -0.002328
*dt_33 -0.007394 0.008597 0.008326 0.006504 -0.007623 -0.002220 -0.002598 -0.008013 -0.000945 0.011161 -0.001742 0.003171 -0.011716 -0.008604 0.004762 -0.001924 0.007748 0.009120 -0.008613 0.008210 -0.007462 0.003881 0.004979 0.001999 -0.000355 0.005776 0.008951 0.005686 -0.009027 0.005968 -0.010013 0.000764 0.006131 -0.006147 -0.010023 -0.001343 -0.008699 -0.002259 -0.007173 -0.011713 -0.005775 0.003846 -0.006858 0.004467 0.003776 -0.008522 -0.005217 -0.005642 0.005903 0.004191
*dt_34 0.009615 0.007290 0.005052 0.000151 0.004413 -0.004439 -0.004454 -0.000810 -0.002346 0.002647 -0.001448 0.006536 -0.006982 0.004554 -0.002912 -0.002689 0.002880 -0.006736 -0.011170 -0.008679 0.003841 -0.006977 -0.001759 -0.008212 0.007517 -0.007938 0.005054 0.003020 0.005580 0.000960 0.004651 -0.004952 0.000946 -0.005477 0.008544 -0.000661 -0.009998 0.007368 -0.000599 -0.001787 0.000395 0.005975 -0.008411 0.008664 -0.004972 0.001897 0.007910 -0.005626 0.007165 -0.004581
*dt_35 0.009305 -0.004025 -0.005704 -0.004270 -0.000964 -0.009555 -0.007904 -0.009913 -0.009421 -0.006625 0.009938 -0.010464 0.000711 0.004449 -0.002619 -0.005833 -0.007996 0.002927 -0.005450 -0.006531 -0.004859 -0.008574 -0.007305 0.006998 -0.009584 -0.000374 -0.004413 0.000804 0.006045 -0.002137 -0.005475 -0.009867 -0.003626 0.007090 -0.001476 -0.001109 -0.003009 -0.003444 -0.009494 -0.006829 -0.003382 0.000947 0.004545 0.006529 -0.003873 0.001352 -0.003599 0.002718 0.007525 0.008207
*dt_36 0.000943 0.003923 0.006659 0.003319 0.007783 -0.002474 -0.008005 0.006620 -0.006045 0.006008 -0.006628 -0.007372 -0.005635 0.004506 -0.007666 0.008733 -0.000735 0.004198 -0.000051 -0.005732 0.008788 -0.003246 -0.009168 -0.003473 -0.002794 -0.006297 0.005494 -0.001661 -0.000644 0.007790 0.007532 0.000980 -0.002936 0.003154 -0.003231 -0.006674 -0.000208 -0.010707 0.006187 0.004622 -0.004904 -0.005945 0.007057 0.002755 0.006800 -0.006172 -0.009668 0.008916 0.008269 0.003132
*dt_37 0.001595 0.004443 -0.001751 -0.000510 0.006937 -0.004632 0.009516 0.003924 0.005873 -0.001565 0.002115 0.004048 -0.007962 0.006705 -0.000192 0.005566 -0.003554 0.005250 -0.003008 -0.006644 0.009435 0.007588 0.001026 0.004347 0.005538 -0.007321 0.004628 -0.002057 -0.008848 0.002661 -0.010932 0.003274 0.007827 -0.006963 -0.010345 0.006865 0.008546 0.003914 0.002239 -0.000950 -0.004100 0.008030 -0.005409 0.004803 -0.007009 -0.005257 0.004840 0.009741 0.006371 0.001681
*dt_38 0.003544 -0.003772 -0.006375 0.008916 0.003746 -0.000784 -0.008204 0.006760 -0.003039 0.005183 0.001768 -0.002358 -0.008652 0.005678 -0.010044 -0.001956 -0.005700 -0.006928 0.004922 -0.006387 0.005033 -0.011497 0.007195 -0.009658 -0.008089 -0.005360 -0.009142 0.006828 -0.000079 0.001806 -0.007190 -0.007496 -0.002908 0.006695 -0.001094 0.002902 -0.010815 0.007059 0.009784 -0.002981 0.006985 0.007450 0.006225 0.007553 -0.002929 -0.003564 0.001335 -0.006319 0.007171 -0.008382
*dt_39 0.007063 -0.007310 -0.003865 0.000482 0.003679 0.005831 -0.002076 -0.007755 0.006940 0.007791 0.007133 -0.001111 0.001633 0.002272 0.003303 0.006513 0.007224 0.007953 -0.004684 0.005989 0.004391 0.004237 0.001955 0.009786 -0.009726 -0.008677 -0.006501 0.000041 0.006208 0.010578 0.003585 -0.009130 -0.006783 -0.001256 0.003064 -0.005827 -0.003320 0.008881 0.005991 0.005966 0.004180 -0.002832 -0.003046 -0.000336 -0.004321 -0.002016 0.003760 0.002719 0.005944 0.007761
*dt_40 -0.003657 0.003129 -0.004153 -0.000598 -0.005413 0.002776 0.006727 0.003440 0.006334 0.010946 0.000562 -0.011050 0.002906 -0.005658 -0.000895 -0.006741 -0.005466 0.002217 0.006500 -0.005240 0.007930 -0.003000 -0.007689 -0.007712 0.002015 0.003257 -0.002096 0.008240 -0.003790 0.007090 0.003398 -0.007908 -0.005613 0.004431 0.002713 -0.001386 -0.003677 0.000782 -0.007911 -0.002987 -0.003468 -0.007120 0.008349 -0.007393 0.003906 -0.001571 0.002310 0.008166 -0.005777 0.002323
*dt_41 -0.000164 0.002819 0.006026 0.001585 0.004450 -0.009560 -0.008089 0.001003 0.004092 0.003823 -0.006025 -0.009516 -0.007153 -0.007117 -0.009341 -0.001241 -0.001117 0.008716 -0.009522 0.001195 -0.001206 -0.000521 -0.004241 -0.006294 0.007253 0.008545 0.004384 0.007139 0.001709 0.012285 -0.011410 0.003984 -0.009128 0.002622 -0.005944 -0.003008 -0.002323 -0.005101 -0.008822 0.003159 0.003777 -0.008127 0.004641 0.005877 0.007849 0.002144 0.005054 -0.008877 0.010673 -0.009579
*dt_42 0.008490 0.009075 -0.007456 0.002852 -0.006411 -0.002555 -0.006249 -0.010345 -0.008590 0.011142 0.011005 -0.001953 -0.009258 -0.004632 -0.000810 -0.001018 0.001121 0.002636 -0.012161 -0.006947 0.008833 -0.001834 -0.005142 -0.004256 0.002570 -0.005332 0.001245 -0.000360 -0.012532 0.012466 0.005938 0.008635 -0.000762 0.007179 -0.007674 0.007811 0.006293 -0.008737 -0.005290 -0.011299 0.006082 -0.001230 -0.009276 -0.002953 -0.003499 0.006166 0.009527 -0.009390 0.002745 -0.004942
*dt_43 -0.005483 0.001087 0.002171 0.007841 -0.004513 0.001688 0.003872 0.003833 -0.001279 0.008895 0.000798 0.006737 -0.012049 -0.001610 -0.000571 0.000501 -0.010325 -0.007819 -0.005449 0.007794 -0.000842 -0.009379 -0.006009 0.002482 0.003984 0.007898 0.008136 -0.002792 0.003646 0.006539 0.003449 -0.000458 -0.008467 0.007338 -0.005510 -0.009322 0.006560 -0.007049 0.001563 -0.006294 -0.003401 0.009409 -0.011840 -0.004678 0.008544 -0.005842 -0.009271 0.000902 0.006146 -0.009754
*dt_44 0.001918 -0.007498 -0.000481 0.007614 -0.003033 -0.004063 0.008068 0.004159 0.001590 0.007806 -0.008479 0.009485 -0.002327 0.002151 0.002974 -0.003688 -0.000362 -0.006304 -0.001367 0.008093 0.007980 0.007361 0.002761 -0.004869 0.007185 0.001991 0.007703 -0.000003 0.006083 0.009429 0.007824 -0.002565 0.005187 -0.003829 -0.003736 -0.006548 -0.009332 0.001723 0.003048 0.006968 0.009150 0.008711 -0.000075 -0.009649 0.006412 0.003026 -0.002425 0.001140 0.003516 0.008793
*dt_45 -0.005984 -0.001494 0.006171 -0.004483 0.004870 -0.000117 -0.010142 0.005902 0.003851 0.008833 0.007682 -0.009245 -0.009013 0.009216 0.005375 -0.003766 -0.001065 -0.003003 0.003540 -0.000707 -0.006234 -0.007610 0.008317 0.009062 0.003194 0.010882 0.005379 0.004193 -0.008253 0.000350 -0.009651 0.004274 -0.006228 0.003950 -0.006244 0.003449 -0.006402 -0.002350 0.003610 0.002189 0.004168 0.006152 0.002790 0.001565 0.008049 -0.005598 0.002306 0.004555 -0.007773 -0.006814
*dt_46 -0.007509 0.008815 -0.007983 -0.003751 -0.002064 0.006338 0.008142 -0.006460 -0.002953 -0.000355 -0.005645 0.006122 0.003542 0.005398 -0.004007 -0.007355 -0.001394 0.007453 0.008275 0.004384 0.007416 0.000061 -0.005829 0.006203 -0.009345 -0.009285 0.006958 0.006361 -0.004294 0.006605 -0.009783 0.003237 -0.001318 0.009685 -0.000362 0.008692 -0.008085 0.002699 0.009555 -0.000303 -0.002159 -0.005182 -0.008239 -0.001067 -0.006956 -0.009254 -0.009949 -0.004995 0.009523 -0.000992
*dt_47 0.006007 0.001328 0.010605 0.004983 -0.010905 -0.005141 -0.009532 0.009537 0.006608 0.001160 0.002438 -0.000782 -0.008899 -0.003780 0.008140 -0.005081 -0.005548 0.007900 -0.005453 0.008725 0.001494 -0.003847 -0.005618 0.002343 0.009939 -0.001612 0.009394 -0.001988 -0.013427 0.006682 -0.001676 -0.006283 0.002175 -0.009443 0.009157 0.006913 0.001859 0.007433 -0.000981 -0.000101 0.004269 0.001967 -0.007640 0.000586 0.001165 -0.003122 -0.001904 -0.002127 0.010861 0.003287
*dt_48 0.006689 -0.003309 -0.005294 0.003733 -0.005819 -0.003676 0.001978 0.006549 0.004977 0.008920 0.005077 -0.000084 0.003792 0.007076 -0.005258 0.006661 -0.010167 0.004449 0.003001 -0.005822 0.000277 0.005441 -0.003400 0.004634 0.007015 -0.003980 0.004319 -0.006540 -0.000163 0.000733 0.000488 -0.005922 -0.008639 0.006265 -0.006868 0.007991 -0.006036 -0.006535 -0.003146 0.000719 0.010197 0.003815 0.000061 -0.007471 -0.006991 0.006618 -0.004302 -0.006632 -0.008471 -0.004490
*dt_49 -0.002023 -0.003760 -0.000447 -0.009602 0.006143 0.009358 0.007748 0.003903 0.004198 -0.000077 0.005340 -0.004522 0.001259 0.008514 -0.003065 -0.008914 -0.010309 0.009081 -0.009598 -0.001786 0.001639 -0.002294 0.005278 0.001206 -0.000006 -0.006888 0.007396 -0.003073 -0.004575 0.001948 -0.007286 0.002086 -0.008066 0.000903 -0.005351 -0.003621 0.006147 -0.002575 -0.006711 -0.005301 0.004890 -0.003115 -0.006215 -0.007431 -0.004077 -0.000510 -0.010234 -0.000945 0.009735 -0.006620
*dt_50 0.007496 0.004032 0.003035 0.009698 -0.002775 0.003799 0.009418 0.005618 -0.007295 -0.007760 0.002786 -0.005059 -0.009577 -0.007895 0.001480 0.006987 -0.010311 -0.005283 0.004160 0.006426 0.001285 -0.002191 -0.007296 -0.008102 0.007802 0.004438 -0.001232 0.007742 -0.005486 -0.002329 -0.000007 -0.007450 0.009614 -0.003805 -0.009947 -0.005161 -0.003933 -0.007734 0.007375 0.002253 -0.008793 -0.007469 0.007819 -0.000723 -0.006427 -0.001692 -0.005611 0.000442 0.000355 0.000836
*dt_51 -0.003344 0.002158 0.011745 -0.007618 -0.000959 0.009097 -0.007288 -0.009187 -0.009006 -0.006083 -0.005984 -0.008794 -0.011254 -0.005265 -0.006335 0.005340 0.002846 -0.001720 -0.003403 -0.007201 -0.002129 0.000807 -0.009189 -0.006707 -0.000973 0.006607 -0.007975 0.003817 -0.005868 0.010237 -0.001484 -0.007915 -0.005716 0.007520 -0.000627 -0.005870 0.006548 -0.001354 0.002110 0.003190 0.004187 -0.000421 0.005492 0.008484 0.004018 0.003016 0.001760 -0.005590 0.004514 0.006690
*dt_52 -0.003020 -0.008608 -0.008862 -0.001170 -0.002356 0.009738 -0.004642 -0.009597 -0.000363 -0.006859 0.004097 -0.003495 0.004738 0.007389 0.000225 0.007675 -0.003125 0.002425 -0.006385 -0.008177 -0.002949 -0.006527 -0.002077 0.005027 0.002362 0.007031 -0.009052 -0.008223 -0.002018 -0.000489 -0.003991 0.004452 0.007936 0.006374 0.003391 0.000835 -0.000001 -0.009785 0.007539 0.001576 -0.007328 0.003356 -0.009137 0.000541 -0.001403 0.007457 -0.008905 -0.005617 0.002891 -0.007570
*dt_53 -0.001113 0.008176 -0.003602 -0.006970 -0.010129 -0.009872 -0.006138 -0.005676 -0.000517 0.008494 -0.006732 -0.003053 -0.002213 0.003681 -0.007433 -0.008351 0.003914 -0.002907 -0.007568 -0.008868 0.010161 0.002407 0.007474 -0.007407 0.006283 0.007490 -0.002409 -0.004324 0.007699 0.004971 -0.007749 -0.008358 0.007369 0.007899 0.004350 0.005879 -0.005148 0.009063 -0.004988 -0.009573 -0.002555 0.008689 -0.008966 -0.005946 0.008659 0.008316 0.005023 -0.010028 -0.000164 -0.003849
*dt_54 0.011141 -0.007751 0.005518 -0.002544 -0.000885 0.009342 -0.001143 0.008392 -0.008648 -0.006066 -0.001686 -0.000739 -0.006130 0.005911 0.000478 0.000260 0.001033 -0.002632 -0.004502 0.002235 -0.006802 -0.009282 -0.007259 0.000388 0.001675 0.010280 -0.002225 -0.006449 -0.008809 -0.007074 0.004592 0.003774 -0.003076 -0.009602 -0.008156 0.005836 -0.000747 -0.004702 -0.007117 -0.007773 0.009778 0.003706 0.007389 -0.001249 0.005246 -0.009966 -0.002877 -0.002834 0.008245 -0.000482
*dt_55 -0.000190 0.007077 0.002277 -0.004738 -0.005722 -0.002335 0.008938 0.002552 0.003611 0.005871 -0.004995 0.004618 0.001153 0.009807 -0.006913 -0.000678 -0.001710 -0.006578 -0.004208 0.006739 0.011286 0.005143 -0.011288 0.009694 0.009815 0.005850 -0.007133 -0.006791 -0.003168 0.008917 -0.010315 0.004818 0.001361 0.008528 0.003281 -0.009672 0.001470 -0.001584 0.002303 0.005667 -0.000385 0.003765 0.007761 -0.005342 0.005822 0.009098 -0.003876 0.005174 -0.002231 -0.003127
*dt_56 -0.002748 -0.008694 0.006305 0.008477 0.001013 0.008495 0.007858 0.008992 0.007047 0.007178 -0.003127 -0.006835 -0.007934 -0.006137 -0.004353 -0.006483 -0.000531 0.002885 -0.004946 -0.005416 -0.003723 -0.008966 0.002613 0.009696 -0.008148 0.000453 0.003347 -0.007850 0.005365 0.002271 0.005171 -0.008908 -0.000594 -0.002692 0.001117 0.000629 -0.001114 -0.002814 -0.001755 -0.007270 -0.000073 -0.000198 0.000964 -0.005382 0.010381 -0.008081 -0.002139 -0.001975 0.001887 0.001566
