642 50
*dt_0 -0.130243 0.226576 -0.012742 0.014166 -0.086577 0.016570 -0.063325 0.014559 0.014111 0.023611 0.029924 -0.069486 -0.009614 0.031855 0.054985 -0.032473 -0.019480 0.160806 -0.056815 0.007972 -0.013705 0.100101 -0.071817 0.216336 -0.048800 0.020877 -0.067309 0.019913 -0.016388 0.027006 0.029135 0.086939 0.015302 -0.095475 -0.012980 -0.140597 0.018112 -0.077150 0.087424 0.032749 -0.083575 -0.026806 -0.010909 -0.127069 -0.025268 0.094656 0.018707 -0.041815 0.063877 -0.156833
*dt_1 -0.216263 0.342777 -0.014980 0.018490 -0.131516 0.026324 -0.108759 0.028285 0.021531 0.005597 0.034978 -0.118604 -0.025835 0.043884 0.060775 -0.028766 -0.013666 0.246232 -0.084031 0.034068 -0.015081 0.145486 -0.121993 0.327582 -0.101499 0.017625 -0.105230 0.052533 -0.031400 0.042649 0.036217 0.132638 0.030723 -0.138404 -0.026934 -0.226503 0.036174 -0.127699 0.152624 0.038914 -0.106742 -0.062366 -0.018993 -0.192758 -0.043529 0.148724 0.009167 -0.053769 0.115157 -0.243696
*dt_2 -0.172526 0.259629 -0.025872 0.030764 -0.104876 0.015689 -0.082523 0.020818 0.022997 0.013570 0.037280 -0.111400 -0.028523 0.046135 0.056514 -0.037992 -0.008258 0.186165 -0.078058 0.015347 -0.015316 0.130734 -0.096070 0.256121 -0.083372 0.013385 -0.096908 0.026594 -0.013225 0.036709 0.028736 0.110341 0.027847 -0.112542 -0.012562 -0.167640 0.037849 -0.102838 0.114782 0.025294 -0.097929 -0.050433 -0.016531 -0.146520 -0.030366 0.104949 -0.001005 -0.054529 0.071475 -0.191935
*dt_3 -0.218500 0.349144 -0.028712 0.014903 -0.144334 0.040432 -0.125805 0.025172 0.015719 0.014338 0.046169 -0.136117 -0.024044 0.039301 0.057885 -0.023870 -0.006791 0.254985 -0.108547 0.046269 -0.019839 0.161818 -0.134148 0.350593 -0.119080 0.009141 -0.115260 0.034338 -0.022811 0.059420 0.040374 0.130856 0.047103 -0.160819 -0.010769 -0.218019 0.045681 -0.130969 0.162002 0.049577 -0.112116 -0.075509 -0.023951 -0.202241 -0.052404 0.165201 0.017672 -0.069791 0.111938 -0.270380
*dt_4 -0.221893 0.347243 -0.035599 0.037570 -0.141534 0.027718 -0.122606 0.032780 0.018468 0.006895 0.033465 -0.126467 -0.026739 0.036513 0.062847 -0.030305 -0.012249 0.254325 -0.087792 0.030248 -0.032591 0.153592 -0.124152 0.333119 -0.105557 0.025530 -0.123493 0.038666 -0.025690 0.038394 0.046756 0.133742 0.046679 -0.164260 -0.014330 -0.231874 0.047113 -0.127065 0.156754 0.053953 -0.105438 -0.058455 -0.009065 -0.180190 -0.054612 0.154852 0.008913 -0.065068 0.111312 -0.259900
*dt_5 -0.220783 0.337139 -0.020250 0.025757 -0.131225 0.022958 -0.105603 0.015075 0.019575 0.015289 0.030935 -0.114054 -0.021413 0.039409 0.079200 -0.032001 -0.012814 0.254672 -0.100582 0.037020 -0.023971 0.155881 -0.121527 0.324953 -0.105211 0.012096 -0.122402 0.041048 -0.021784 0.038028 0.037307 0.131740 0.046568 -0.144554 -0.001656 -0.226325 0.039942 -0.111071 0.164896 0.050620 -0.112965 -0.066302 -0.017767 -0.172824 -0.045347 0.140934 0.014590 -0.067783 0.102625 -0.250716
*dt_6 -0.197749 0.287490 -0.016980 0.011273 -0.105815 0.027483 -0.090817 0.013816 0.021751 0.019448 0.036041 -0.107074 -0.025285 0.028776 0.066225 -0.034972 -0.005123 0.210739 -0.075254 0.029287 -0.025826 0.125876 -0.106857 0.277634 -0.092545 0.012834 -0.099726 0.028666 -0.025895 0.040183 0.038499 0.112954 0.038767 -0.140649 -0.014642 -0.195953 0.036185 -0.097144 0.122901 0.033205 -0.103657 -0.059643 -0.017609 -0.152659 -0.044573 0.121718 0.020017 -0.055393 0.094801 -0.223310
*dt_7 -0.120341 0.184409 -0.031231 0.003885 -0.073546 0.014841 -0.062429 0.025899 0.023253 0.008668 0.033787 -0.059196 -0.021280 0.033745 0.038091 -0.018811 -0.004351 0.117687 -0.063547 0.031727 -0.029156 0.088203 -0.069120 0.158162 -0.060754 0.007417 -0.083133 0.028426 -0.024404 0.032968 0.018196 0.079565 0.042161 -0.069499 -0.001519 -0.144336 0.031553 -0.062637 0.084114 -0.005190 -0.076238 -0.043817 -0.005784 -0.083013 -0.050453 0.098316 0.022073 -0.020191 0.059237 -0.146721
*dt_8 -0.146816 0.215185 -0.022632 0.024606 -0.098674 0.009311 -0.082141 0.016624 0.015382 0.004831 0.025216 -0.086261 -0.011651 0.024743 0.044657 -0.018140 -0.008876 0.166992 -0.058879 0.023078 -0.028586 0.097556 -0.074435 0.205786 -0.080844 0.020999 -0.068359 0.035206 -0.009046 0.031574 0.023357 0.079093 0.026342 -0.092868 -0.002694 -0.156840 0.019468 -0.075674 0.106618 0.033231 -0.087528 -0.035363 -0.016228 -0.113172 -0.038885 0.108005 0.015844 -0.038372 0.064121 -0.167911
*dt_9 -0.009557 0.001092 -0.014470 -0.024724 -0.016884 0.009835 -0.002598 0.007442 0.023130 0.019045 0.022370 0.005937 -0.013876 0.018810 0.024008 0.006293 0.006189 -0.017178 -0.022222 0.003140 -0.013376 0.002483 -0.018027 -0.000905 -0.011813 0.018805 -0.030934 -0.009424 -0.028129 -0.012168 0.001746 0.001186 0.020203 0.012640 0.027117 -0.027278 0.015376 0.012409 0.007655 -0.046785 -0.015961 -0.007516 0.016073 0.020593 -0.027686 0.017590 -0.001011 0.006523 -0.009819 -0.015741
*dt_10 -0.113753 0.175680 -0.027173 -0.001008 -0.069980 0.004608 -0.070496 0.023963 0.017915 0.020985 0.018546 -0.070911 -0.021525 0.024379 0.045578 -0.005039 -0.003660 0.106318 -0.052376 0.014071 -0.020394 0.084732 -0.067823 0.148494 -0.061011 0.010397 -0.059215 0.019615 -0.034586 0.016015 0.020114 0.058464 0.030982 -0.069949 0.001501 -0.101765 0.030722 -0.048265 0.084312 0.008179 -0.053752 -0.027419 0.000508 -0.083802 -0.015427 0.083211 0.018796 -0.040334 0.057050 -0.137413
*dt_11 -0.218898 0.330318 -0.026676 0.006707 -0.146486 0.015401 -0.115720 0.029369 0.023777 0.022429 0.052806 -0.129263 -0.036229 0.052830 0.083006 -0.024194 0.005997 0.232041 -0.089237 0.038898 -0.032464 0.157054 -0.137742 0.308622 -0.106388 0.013889 -0.130138 0.036559 -0.042548 0.035080 0.047983 0.117672 0.038062 -0.148631 -0.002897 -0.213264 0.055840 -0.129649 0.154088 0.035685 -0.116599 -0.052753 -0.017727 -0.181055 -0.037262 0.156517 0.021079 -0.057059 0.110915 -0.259568
*dt_12 -0.097482 0.129958 -0.027394 -0.008212 -0.070918 0.001510 -0.037043 0.010704 0.028860 0.009674 0.026596 -0.044797 -0.023677 0.022385 0.048921 -0.008182 0.001172 0.084604 -0.049466 0.015502 -0.016358 0.061193 -0.065884 0.112009 -0.038376 0.018667 -0.064566 0.024464 -0.033447 0.011863 0.026719 0.054378 0.030997 -0.049002 0.004853 -0.089672 0.016109 -0.038072 0.064911 -0.020148 -0.043923 -0.021070 0.009844 -0.065255 -0.025027 0.076370 0.011494 -0.031295 0.019294 -0.117999
*dt_13 -0.141537 0.224470 -0.011933 0.020873 -0.084682 0.017606 -0.082802 0.007248 0.013917 0.018223 0.035604 -0.085745 -0.014030 0.035696 0.034733 -0.019480 -0.002745 0.162477 -0.060885 0.015467 -0.004563 0.106104 -0.085844 0.215424 -0.059665 0.022581 -0.074381 0.017707 -0.008404 0.019169 0.027790 0.083240 0.018156 -0.098255 -0.009361 -0.130357 0.020049 -0.073940 0.102216 0.024499 -0.067080 -0.029812 -0.007470 -0.116519 -0.026693 0.105102 0.007802 -0.026160 0.076090 -0.163797
*dt_14 -0.167829 0.263028 -0.016300 0.028566 -0.096423 0.016247 -0.088465 0.027495 0.017059 0.016643 0.029899 -0.093610 -0.017957 0.029657 0.048342 -0.024972 -0.006252 0.191885 -0.080728 0.021211 -0.012286 0.123808 -0.105562 0.250748 -0.077411 0.020005 -0.082802 0.023605 -0.016592 0.031364 0.034930 0.097619 0.039387 -0.116695 -0.015924 -0.166536 0.045251 -0.104672 0.120620 0.032556 -0.086619 -0.062219 -0.013316 -0.157009 -0.030089 0.125972 0.007081 -0.046991 0.081675 -0.195913
*dt_15 -0.155899 0.251230 -0.009510 0.011912 -0.079550 0.019319 -0.095010 0.031983 0.018527 0.020780 0.036458 -0.080773 -0.022490 0.040959 0.053637 -0.027275 -0.005902 0.169535 -0.073557 0.022605 -0.011933 0.114389 -0.082892 0.242022 -0.074792 0.011066 -0.089528 0.045081 -0.019963 0.032223 0.037357 0.105953 0.030075 -0.106083 -0.009912 -0.152223 0.030176 -0.084651 0.115557 0.031391 -0.089228 -0.057479 0.000213 -0.144714 -0.029109 0.118510 0.015015 -0.042367 0.065794 -0.198133
*dt_16 0.102890 -0.155438 0.009526 -0.014123 0.046428 -0.017990 0.045276 -0.010810 -0.015407 -0.002316 -0.026032 0.073791 0.013431 -0.009433 -0.035748 0.022850 -0.001059 -0.129721 0.036837 -0.006947 -0.001121 -0.064404 0.058910 -0.171131 0.049927 0.002039 0.058908 -0.026172 -0.010528 -0.015298 -0.026721 -0.058531 -0.000790 0.069196 0.022395 0.097358 -0.013201 0.056962 -0.064994 -0.021099 0.059787 0.027259 -0.015026 0.099092 0.017534 -0.069624 -0.005776 0.028361 -0.042154 0.102210
*dt_17 -0.166818 0.267003 -0.010003 0.010874 -0.096002 0.028365 -0.083521 0.023735 0.010407 0.016034 0.039959 -0.091575 -0.027056 0.036191 0.060431 -0.020342 0.001755 0.190020 -0.061545 0.026135 -0.014429 0.116112 -0.097936 0.257284 -0.085941 0.012554 -0.088783 0.024056 -0.019279 0.031563 0.037568 0.098046 0.020154 -0.126802 -0.006608 -0.162039 0.028918 -0.091559 0.107045 0.040352 -0.087921 -0.054808 -0.007051 -0.154482 -0.029895 0.106367 0.005056 -0.058207 0.076918 -0.203453
*dt_18 -0.098333 0.180444 -0.020701 0.010117 -0.064152 0.006683 -0.072177 0.000422 0.011466 0.010463 0.021489 -0.068222 -0.019271 0.024143 0.045624 -0.005204 -0.009293 0.116625 -0.056718 0.015386 -0.001143 0.067901 -0.071747 0.160719 -0.045872 0.019358 -0.051235 0.018294 -0.018286 0.031287 0.016552 0.070287 0.012351 -0.075611 -0.003009 -0.116520 0.023127 -0.068644 0.065842 0.011743 -0.050622 -0.024793 -0.009118 -0.105954 -0.019546 0.065586 0.019643 -0.026559 0.063003 -0.121471
*dt_19 0.009652 0.005783 0.006142 0.004899 -0.001765 -0.005255 0.003786 0.000039 -0.000552 -0.001279 -0.000945 -0.005476 -0.007277 0.001284 -0.005731 -0.003323 -0.008007 0.008713 -0.009469 0.005709 -0.001525 0.008350 -0.006733 0.004423 -0.007696 -0.009977 0.006733 -0.009378 0.001855 -0.009867 -0.005967 -0.002878 -0.006613 0.002425 -0.002847 0.007665 -0.000632 0.003510 0.001260 0.001733 -0.005971 -0.004031 0.007469 -0.007564 -0.006988 0.008836 -0.005176 -0.006373 0.000330 -0.005888
*dt_20 -0.169287 0.267392 -0.025941 0.025850 -0.106028 0.013747 -0.089415 0.023519 0.025525 0.001917 0.039302 -0.113860 -0.016531 0.049000 0.064485 -0.029430 -0.018041 0.195509 -0.068641 0.030105 -0.018044 0.134980 -0.098637 0.266165 -0.097801 0.001040 -0.105448 0.027752 -0.018967 0.040470 0.039068 0.102721 0.025099 -0.118751 -0.011326 -0.171001 0.026921 -0.098492 0.122802 0.043366 -0.083830 -0.052032 0.000741 -0.147611 -0.027745 0.122512 0.016219 -0.042708 0.080490 -0.193476
*dt_21 -0.169901 0.262584 -0.026125 0.019438 -0.105650 0.010183 -0.105325 0.018142 0.017404 0.011315 0.039865 -0.111560 -0.013692 0.044362 0.046162 -0.022107 -0.003048 0.188125 -0.073392 0.017147 -0.011815 0.133444 -0.108290 0.261996 -0.084689 0.013576 -0.096301 0.031334 -0.018068 0.025729 0.047257 0.096778 0.034741 -0.114877 -0.011129 -0.176847 0.032413 -0.100476 0.114313 0.023933 -0.098521 -0.050207 -0.007105 -0.159724 -0.031194 0.126149 0.007076 -0.045836 0.081903 -0.195995
*dt_22 -0.250039 0.393764 -0.022389 0.030163 -0.152920 0.024608 -0.148121 0.030658 0.037622 0.027477 0.042814 -0.146205 -0.026839 0.044753 0.073023 -0.037287 -0.008686 0.288752 -0.121306 0.039521 -0.016213 0.191210 -0.152638 0.377380 -0.113341 0.027698 -0.129436 0.043298 -0.019484 0.059570 0.046879 0.161102 0.047488 -0.175636 -0.011947 -0.255650 0.061603 -0.154313 0.176573 0.046682 -0.135643 -0.090859 -0.011900 -0.220596 -0.059335 0.176064 0.026182 -0.074624 0.119484 -0.297843
*dt_23 -0.174766 0.274379 -0.018029 0.010726 -0.113052 0.012821 -0.092693 0.022687 0.013115 0.017399 0.045175 -0.100502 -0.021494 0.025917 0.042110 -0.017500 -0.001355 0.195447 -0.083273 0.025064 -0.015817 0.124797 -0.106668 0.266701 -0.091626 0.019296 -0.093610 0.039447 -0.019441 0.031224 0.035673 0.111587 0.022561 -0.128423 -0.004130 -0.168767 0.031403 -0.085592 0.114740 0.023378 -0.100043 -0.049484 -0.008518 -0.148813 -0.037141 0.127233 0.008030 -0.043511 0.092255 -0.199958
*dt_24 -0.065278 0.113273 -0.015698 0.002811 -0.053162 0.015452 -0.033274 0.015662 0.010693 0.016324 0.024209 -0.030150 -0.000523 0.008937 0.015906 -0.019639 -0.013095 0.084748 -0.040619 0.021360 -0.001169 0.055515 -0.039293 0.108127 -0.033088 -0.001971 -0.037946 0.003775 -0.019018 0.014495 0.022287 0.036409 0.017498 -0.045289 0.007637 -0.067868 0.013479 -0.037173 0.056448 0.000019 -0.044066 -0.014561 -0.011596 -0.068902 -0.020244 0.059099 0.009670 -0.016100 0.043632 -0.086635
*dt_25 -0.105978 0.159883 -0.011048 0.016299 -0.067902 0.021279 -0.053412 -0.004153 0.001671 0.009158 0.011914 -0.051277 -0.014358 0.011634 0.027396 -0.003804 -0.001034 0.123134 -0.037067 0.013267 -0.001151 0.065514 -0.050751 0.149162 -0.056112 0.007811 -0.056203 0.021643 -0.019753 0.025676 0.026444 0.052823 0.026575 -0.066238 -0.007415 -0.094713 0.031930 -0.052480 0.081042 0.022790 -0.044747 -0.036458 -0.015085 -0.078537 -0.007975 0.077375 0.008689 -0.034807 0.055907 -0.113430
*dt_26 -0.164876 0.274065 -0.013318 0.013423 -0.090743 0.032841 -0.094179 0.013922 0.028809 0.020194 0.036806 -0.107172 -0.021601 0.034225 0.048873 -0.015553 0.004662 0.186264 -0.071060 0.033149 -0.009318 0.134716 -0.100260 0.254744 -0.078066 0.023466 -0.099048 0.033007 -0.025454 0.031315 0.038136 0.099870 0.030749 -0.104429 -0.023403 -0.161672 0.041613 -0.098354 0.106892 0.028283 -0.085804 -0.047085 -0.012466 -0.146449 -0.030752 0.126190 0.012477 -0.058868 0.081787 -0.203566
*dt_27 -0.188673 0.288213 -0.023392 0.028770 -0.109897 0.015097 -0.098514 0.015528 0.021957 0.023011 0.033963 -0.105322 -0.016129 0.049439 0.057197 -0.017388 -0.006569 0.209143 -0.070441 0.027070 -0.025081 0.132541 -0.093326 0.266599 -0.085105 0.016096 -0.095282 0.042140 -0.017913 0.028526 0.038597 0.115161 0.040126 -0.124528 -0.010511 -0.176757 0.039504 -0.102027 0.125264 0.037755 -0.096246 -0.043921 -0.005307 -0.173802 -0.030418 0.124519 0.005412 -0.054514 0.096732 -0.219583
*dt_28 -0.305213 0.472749 -0.025946 0.024702 -0.178956 0.046998 -0.168842 0.024379 0.038968 0.025702 0.060625 -0.177645 -0.035274 0.073604 0.084096 -0.027454 -0.025088 0.344714 -0.134359 0.048742 -0.020782 0.197448 -0.165743 0.453672 -0.138661 0.011960 -0.153851 0.067283 -0.024703 0.059390 0.070743 0.183441 0.053188 -0.212121 -0.022938 -0.290794 0.039373 -0.171125 0.209205 0.059863 -0.161518 -0.091593 -0.025468 -0.261679 -0.067373 0.190960 0.027422 -0.093123 0.137712 -0.332224
*dt_29 -0.037849 0.081198 -0.003045 0.012476 -0.034342 0.012264 -0.034478 0.005319 -0.005332 0.007002 0.010774 -0.019829 0.000880 0.006159 0.006180 -0.004469 0.001437 0.058094 -0.024505 -0.001961 0.004613 0.032789 -0.020634 0.068899 -0.028307 0.007294 -0.027044 0.005338 0.005410 0.018306 0.009557 0.021397 0.017481 -0.032151 -0.003630 -0.042058 0.003395 -0.033190 0.022082 0.002122 -0.028777 -0.016035 -0.006359 -0.038918 -0.015641 0.023585 0.011241 -0.006572 0.012271 -0.055373
*dt_30 -0.229212 0.343989 -0.013178 0.026034 -0.127740 0.034126 -0.111920 0.013523 0.016565 0.016075 0.054812 -0.142201 -0.012156 0.042223 0.063724 -0.031082 -0.010131 0.245764 -0.094643 0.033842 -0.019711 0.157935 -0.133578 0.333911 -0.098331 0.019241 -0.120361 0.057402 -0.027450 0.037556 0.042464 0.125506 0.040240 -0.161487 -0.010038 -0.232113 0.043940 -0.132256 0.142815 0.044614 -0.112439 -0.066002 -0.001087 -0.193774 -0.045154 0.162477 0.008286 -0.072499 0.102006 -0.255251
*dt_31 -0.147772 0.241639 -0.006003 0.024900 -0.092672 0.015590 -0.079031 0.026048 0.017719 0.022488 0.025828 -0.089015 -0.021885 0.028004 0.057387 -0.014383 0.000922 0.169351 -0.055880 0.014990 -0.007421 0.099211 -0.082991 0.225389 -0.063200 0.008801 -0.080944 0.027728 -0.007961 0.023729 0.042303 0.088458 0.033544 -0.115675 -0.018153 -0.153535 0.017334 -0.090152 0.098744 0.032198 -0.079482 -0.052607 -0.001849 -0.133400 -0.021357 0.103443 0.006973 -0.050536 0.070944 -0.184428
*dt_32 -0.127187 0.223581 -0.016350 0.018283 -0.091166 0.005009 -0.062092 0.019081 0.005574 0.019867 0.023108 -0.086820 -0.010517 0.032877 0.045983 -0.023159 -0.012541 0.150215 -0.055524 0.024175 -0.010961 0.100228 -0.076319 0.208494 -0.070387 0.007515 -0.083602 0.037196 -0.017065 0.023978 0.024299 0.070769 0.024403 -0.092116 -0.019762 -0.145323 0.022545 -0.066413 0.099947 0.034516 -0.061647 -0.038597 0.001199 -0.121109 -0.023065 0.106635 0.023130 -0.048258 0.069214 -0.163231
*dt_33 -0.282856 0.465094 -0.029342 0.035752 -0.179846 0.041389 -0.166224 0.035552 0.029431 0.025186 0.051085 -0.159325 -0.039120 0.059903 0.091499 -0.047596 -0.018273 0.330736 -0.116421 0.038792 -0.027208 0.202763 -0.174842 0.446753 -0.142819 0.026737 -0.156931 0.050869 -0.042007 0.066732 0.048648 0.182717 0.040081 -0.210643 -0.029044 -0.303070 0.044824 -0.165773 0.202980 0.052678 -0.143220 -0.095904 -0.011035 -0.256193 -0.047227 0.191544 0.007172 -0.083550 0.148056 -0.338274
*dt_34 -0.142772 0.237450 -0.013645 0.020131 -0.079305 0.023141 -0.080684 0.017022 0.015560 0.008545 0.031281 -0.094873 -0.023659 0.021242 0.045634 -0.012040 -0.000044 0.174953 -0.060412 0.015507 -0.011169 0.108095 -0.081023 0.226262 -0.066598 0.015320 -0.072746 0.025359 -0.024697 0.032808 0.027199 0.091073 0.025127 -0.098402 -0.017879 -0.155472 0.032075 -0.083547 0.097184 0.032722 -0.082092 -0.042276 -0.009885 -0.123535 -0.020060 0.106610 0.004517 -0.037462 0.073755 -0.180830
*dt_35 -0.242358 0.360675 -0.017119 0.019270 -0.127462 0.038866 -0.123406 0.038189 0.022016 0.008397 0.038418 -0.133448 -0.017906 0.060567 0.073090 -0.031312 -0.007903 0.249775 -0.106599 0.041489 -0.030279 0.163908 -0.117506 0.340530 -0.122369 0.014864 -0.120094 0.035195 -0.029976 0.050355 0.041981 0.140474 0.036219 -0.153537 -0.020591 -0.244712 0.032657 -0.123530 0.158311 0.036971 -0.116226 -0.068219 -0.000786 -0.203552 -0.063469 0.157984 0.017406 -0.054672 0.107732 -0.268190
*dt_36 -0.244012 0.373048 -0.030148 0.033422 -0.147957 0.028825 -0.122157 0.034610 0.028698 0.006812 0.056748 -0.147514 -0.024732 0.039860 0.074706 -0.041206 -0.017594 0.260338 -0.099812 0.049537 -0.029817 0.165654 -0.139958 0.343179 -0.109696 0.012340 -0.136249 0.051522 -0.037458 0.055689 0.056068 0.134416 0.040841 -0.167946 -0.002310 -0.245444 0.043631 -0.141017 0.162757 0.036730 -0.136632 -0.073436 -0.016775 -0.210381 -0.061616 0.168102 0.008991 -0.063389 0.121047 -0.280409
*dt_37 -0.143831 0.223875 -0.009789 0.020998 -0.082035 0.019128 -0.074645 0.024431 0.008652 -0.003652 0.033298 -0.073775 -0.008045 0.036078 0.035384 -0.024937 -0.002953 0.157592 -0.051167 0.027221 -0.016973 0.093925 -0.090338 0.201264 -0.074622 0.002693 -0.072378 0.030565 -0.009092 0.036481 0.027647 0.094716 0.019695 -0.087894 -0.009247 -0.144928 0.030152 -0.084745 0.107915 0.019891 -0.062760 -0.040720 0.004206 -0.126841 -0.037574 0.096390 0.011055 -0.037056 0.074507 -0.168892
*dt_38 -0.160867 0.234490 -0.027428 0.022802 -0.085194 0.022742 -0.077504 0.013116 0.008825 0.009285 0.027022 -0.086695 -0.019764 0.037916 0.039058 -0.021473 -0.000579 0.177812 -0.064852 0.013612 -0.021501 0.117039 -0.078437 0.224743 -0.081317 0.016944 -0.080078 0.038236 -0.020216 0.017042 0.026124 0.085402 0.025744 -0.102013 -0.020587 -0.149872 0.033662 -0.087167 0.099884 0.018130 -0.066253 -0.037733 -0.023537 -0.140824 -0.043428 0.098995 0.007052 -0.051475 0.060667 -0.172666
*dt_39 -0.156662 0.263049 -0.011916 0.014823 -0.088689 0.023705 -0.094292 0.008518 0.007785 0.019610 0.021044 -0.097503 -0.023461 0.030063 0.047957 -0.025612 -0.007021 0.176233 -0.068212 0.019066 -0.024768 0.110878 -0.102221 0.249558 -0.068381 0.008557 -0.077368 0.044215 -0.022588 0.023711 0.035395 0.088821 0.019120 -0.113458 -0.003844 -0.171869 0.024310 -0.092420 0.105372 0.034623 -0.078557 -0.039687 -0.004460 -0.149852 -0.025938 0.103510 0.011980 -0.055549 0.081848 -0.186575
*dt_40 -0.252816 0.375669 -0.036558 0.029137 -0.146551 0.022155 -0.129496 0.037059 0.036498 0.023005 0.057389 -0.146585 -0.026302 0.054783 0.087473 -0.036982 -0.012609 0.265585 -0.106293 0.038376 -0.036298 0.183709 -0.139065 0.360003 -0.121200 0.019669 -0.132181 0.055844 -0.022796 0.058358 0.043059 0.140924 0.034374 -0.171683 -0.012513 -0.261474 0.045531 -0.143816 0.158592 0.037985 -0.121512 -0.077589 -0.003049 -0.204912 -0.045657 0.172387 0.023614 -0.066826 0.111496 -0.298832
*dt_41 -0.157066 0.235068 -0.009279 0.024532 -0.095892 0.021055 -0.084598 0.019895 0.014720 0.020035 0.021532 -0.090136 -0.020805 0.035464 0.053175 -0.024352 0.009219 0.167164 -0.053609 0.023839 -0.015641 0.106957 -0.098163 0.228512 -0.083865 0.013740 -0.077927 0.033687 -0.006639 0.033199 0.023204 0.082501 0.034951 -0.095010 -0.012200 -0.165914 0.023709 -0.079938 0.118957 0.036640 -0.078509 -0.041060 -0.021682 -0.128331 -0.042750 0.101308 0.018293 -0.039642 0.069399 -0.176651
*dt_42 0.015638 -0.015091 -0.007933 0.011460 -0.005815 0.012661 -0.004127 -0.009615 0.009546 0.000899 0.005548 0.007458 -0.007512 0.006336 -0.000916 0.013903 -0.003492 -0.013619 0.006261 0.001057 0.000242 -0.005901 0.004511 -0.001045 0.010095 -0.001807 0.012724 -0.012569 -0.005122 -0.005743 0.006311 -0.001347 0.005065 -0.002436 -0.003238 0.026424 0.003557 0.005195 -0.018862 -0.007907 0.008803 0.009485 -0.009295 -0.005010 -0.003188 -0.016569 -0.009245 -0.004591 -0.005034 0.015204
*dt_43 -0.182259 0.280292 -0.013571 0.033465 -0.105829 0.028091 -0.108786 0.006401 0.024287 0.005133 0.022074 -0.118472 -0.013151 0.046495 0.059174 -0.030408 -0.017310 0.204213 -0.061540 0.028599 -0.025416 0.122145 -0.106000 0.282397 -0.085623 0.018684 -0.094621 0.033497 -0.034366 0.023254 0.043918 0.116710 0.028454 -0.130173 -0.024118 -0.182939 0.022200 -0.094589 0.126258 0.048688 -0.089989 -0.045656 -0.033327 -0.169381 -0.040776 0.112682 0.017062 -0.053612 0.085398 -0.206280
*dt_44 -0.215226 0.325835 -0.018370 0.031703 -0.116303 0.019878 -0.104618 0.024971 0.015893 0.021298 0.031899 -0.118235 -0.010980 0.053018 0.074131 -0.026711 -0.009595 0.254598 -0.085362 0.038645 -0.027264 0.144232 -0.112839 0.314687 -0.107105 0.011661 -0.111382 0.039516 -0.025662 0.045904 0.035598 0.128703 0.023577 -0.144575 -0.017156 -0.209929 0.040303 -0.128811 0.137699 0.043548 -0.111795 -0.068038 -0.020428 -0.199739 -0.043790 0.139752 0.002558 -0.062397 0.112362 -0.256712
*dt_45 -0.037711 0.061362 -0.005062 0.002202 -0.024357 0.004229 -0.023842 0.008343 0.002018 -0.005084 0.014641 -0.029973 -0.002529 0.005834 0.006628 -0.012663 0.001393 0.052286 -0.024445 0.018774 -0.017418 0.036227 -0.027339 0.066382 -0.010014 -0.005279 -0.028120 0.017429 -0.014565 0.000970 0.000529 0.022945 -0.000486 -0.030894 -0.007289 -0.049914 0.004899 -0.015115 0.030421 -0.005286 -0.016236 -0.008162 0.000269 -0.028185 -0.015138 0.040860 0.008883 -0.007954 0.032876 -0.051173
*dt_46 -0.174598 0.274925 -0.009649 0.015646 -0.113233 0.021396 -0.096357 0.031109 0.010146 0.016348 0.025595 -0.101427 -0.024885 0.033085 0.043897 -0.034278 -0.006661 0.172660 -0.079237 0.029434 -0.011337 0.122023 -0.099111 0.263639 -0.085742 0.017651 -0.099931 0.036631 -0.018699 0.033946 0.029888 0.096778 0.021267 -0.122164 -0.019179 -0.167446 0.036658 -0.085598 0.114109 0.019925 -0.095650 -0.046759 -0.011823 -0.144903 -0.035038 0.113413 0.001504 -0.044633 0.093442 -0.203980
*dt_47 -0.192748 0.314062 -0.019440 0.013795 -0.121476 0.021618 -0.100763 0.009313 0.031220 0.003228 0.037509 -0.103297 -0.023802 0.036548 0.071114 -0.021937 -0.018468 0.223857 -0.074255 0.038845 -0.022127 0.138037 -0.103897 0.296944 -0.101726 0.013940 -0.106695 0.029431 -0.025914 0.036859 0.040950 0.112997 0.029231 -0.123549 -0.012371 -0.182277 0.046394 -0.093655 0.129332 0.037255 -0.102030 -0.047415 -0.003763 -0.169361 -0.027704 0.142492 0.008805 -0.046457 0.089949 -0.233521
*dt_48 -0.146717 0.239527 -0.018056 0.009849 -0.085559 0.030294 -0.079502 0.007175 0.018479 0.005728 0.032660 -0.078885 -0.008048 0.021734 0.047276 -0.016907 -0.009304 0.168730 -0.073383 0.025704 -0.010886 0.119031 -0.079757 0.223452 -0.080290 0.011358 -0.087843 0.030181 -0.020408 0.028595 0.025461 0.098701 0.022976 -0.095861 -0.007700 -0.164053 0.024851 -0.084284 0.105665 0.029458 -0.087170 -0.059332 0.000941 -0.143093 -0.031304 0.117443 0.018261 -0.035832 0.064243 -0.167172
*dt_49 -0.186026 0.287937 -0.028705 0.027395 -0.121192 0.028337 -0.096336 0.033585 0.012549 0.012575 0.040127 -0.115673 -0.028253 0.035080 0.050498 -0.017018 -0.012404 0.202451 -0.080045 0.025133 -0.024393 0.135447 -0.095003 0.274723 -0.093128 0.018900 -0.099554 0.041883 -0.024908 0.025690 0.049376 0.117382 0.022474 -0.116648 -0.007816 -0.196723 0.027652 -0.111492 0.119224 0.036800 -0.099844 -0.048770 -0.011283 -0.158090 -0.035899 0.125493 0.006335 -0.065270 0.097544 -0.221107
*dt_50 -0.170882 0.254395 -0.008768 0.027202 -0.094630 0.019661 -0.085987 0.018888 0.026626 0.016690 0.031497 -0.107683 -0.015373 0.029725 0.054353 -0.018867 -0.001970 0.191604 -0.072640 0.035561 -0.015575 0.109484 -0.101117 0.244018 -0.074163 0.017174 -0.079346 0.024911 -0.019617 0.031277 0.022746 0.090162 0.029692 -0.116745 -0.009260 -0.172845 0.033848 -0.091081 0.117123 0.031530 -0.088118 -0.056653 -0.008690 -0.149354 -0.027335 0.107143 0.012053 -0.053498 0.075388 -0.199667
*dt_51 -0.210592 0.348289 -0.012549 0.026210 -0.136653 0.019502 -0.114119 0.022364 0.011680 0.023101 0.042700 -0.132259 -0.031170 0.037546 0.069364 -0.028586 -0.003431 0.242656 -0.099697 0.035996 -0.012352 0.147674 -0.124822 0.316837 -0.093958 0.013123 -0.110524 0.033377 -0.030040 0.047584 0.049630 0.131764 0.040704 -0.151482 -0.021570 -0.228808 0.040956 -0.125975 0.144135 0.043535 -0.123413 -0.061376 -0.017474 -0.195637 -0.046291 0.151916 0.021841 -0.070664 0.105904 -0.253834
*dt_52 -0.183031 0.297022 -0.030333 0.026393 -0.107716 0.022393 -0.096128 0.022967 0.020507 0.011355 0.029633 -0.124276 -0.012593 0.047051 0.069132 -0.037058 -0.007520 0.201127 -0.089604 0.039965 -0.015236 0.138305 -0.111068 0.277360 -0.096801 0.012633 -0.104479 0.035935 -0.026706 0.049135 0.052866 0.104991 0.032922 -0.139702 -0.011732 -0.185143 0.026548 -0.110232 0.129727 0.020283 -0.106507 -0.053579 0.001124 -0.153992 -0.035532 0.127763 0.015434 -0.047725 0.082368 -0.228383
*dt_53 -0.121113 0.211349 -0.027412 0.016218 -0.076732 0.008496 -0.078262 0.020711 0.014166 0.001102 0.037665 -0.081150 -0.001706 0.021989 0.027244 -0.022061 -0.005975 0.144605 -0.063210 0.026616 -0.024016 0.094834 -0.068197 0.196372 -0.073238 0.001554 -0.066292 0.031429 -0.005663 0.027212 0.021080 0.064424 0.024835 -0.082867 -0.008944 -0.138300 0.016741 -0.081834 0.080824 0.029308 -0.071991 -0.051662 0.004128 -0.116352 -0.027930 0.085974 -0.005159 -0.044727 0.072210 -0.161882
*dt_54 -0.093299 0.143920 -0.013632 0.008199 -0.037391 0.003282 -0.066595 0.023968 0.011916 0.000907 0.023105 -0.064864 -0.000560 0.014627 0.014418 -0.004462 -0.004484 0.120894 -0.032297 0.003217 -0.002432 0.074555 -0.049735 0.141767 -0.046318 0.003478 -0.052220 0.020004 -0.012792 0.013348 0.024935 0.046828 0.023133 -0.065919 -0.019265 -0.087399 -0.003152 -0.055105 0.070825 0.019402 -0.063566 -0.036025 0.007853 -0.069938 -0.019153 0.052553 0.005943 -0.032387 0.036327 -0.106638
*dt_55 -0.122646 0.187335 -0.009005 0.001811 -0.068010 0.001013 -0.062318 0.010713 0.017729 -0.003886 0.029688 -0.062087 -0.007578 0.032925 0.046040 -0.009603 0.001513 0.128310 -0.060213 0.023591 -0.003434 0.090351 -0.055233 0.164157 -0.055453 0.001148 -0.062571 0.028903 -0.011756 0.023061 0.022273 0.060741 0.018045 -0.079837 -0.002964 -0.111166 0.015206 -0.062092 0.074523 0.029268 -0.055553 -0.042719 -0.007875 -0.090423 -0.016125 0.069614 0.012512 -0.032351 0.045079 -0.147874
*dt_56 -0.071541 0.106618 -0.010451 0.018027 -0.039049 -0.000005 -0.033402 0.022875 0.001538 0.009195 0.021840 -0.041303 -0.003667 0.015289 0.028181 -0.003317 0.007847 0.087344 -0.028276 0.010012 -0.019692 0.055604 -0.054801 0.113938 -0.030712 -0.000735 -0.038809 0.017732 -0.008719 0.012105 0.011663 0.038585 0.023550 -0.043549 -0.021239 -0.080060 0.020842 -0.035317 0.059347 0.001815 -0.031755 -0.017101 0.003498 -0.057733 -0.014460 0.050749 -0.009649 -0.032126 0.026419 -0.098625
*dt_57 -0.232695 0.359019 -0.032249 0.035571 -0.131856 0.038473 -0.128638 0.025257 0.021536 0.025002 0.055779 -0.132354 -0.015477 0.043635 0.062107 -0.038492 -0.004320 0.266134 -0.106127 0.033256 -0.023757 0.159624 -0.136610 0.348387 -0.104891 0.012803 -0.121588 0.043775 -0.021972 0.042112 0.055824 0.149213 0.038308 -0.161174 -0.028900 -0.240087 0.038741 -0.125319 0.164595 0.046102 -0.112574 -0.066751 -0.014061 -0.212796 -0.050310 0.154435 0.019628 -0.066824 0.122746 -0.270882
*dt_58 0.000867 -0.016446 -0.009447 -0.001254 0.008290 0.006936 -0.002850 0.000635 -0.001568 0.003221 -0.000783 -0.000963 0.008054 0.004882 -0.000763 0.009029 -0.011504 -0.008008 -0.000922 0.003543 0.007071 -0.011276 0.014182 -0.020759 -0.004800 0.007534 -0.001379 -0.008144 0.002181 -0.008059 -0.006359 -0.009820 -0.011695 0.001059 0.006212 0.015606 -0.013167 0.000474 -0.009567 -0.004298 -0.006656 -0.004275 0.005297 0.010104 -0.008327 -0.007697 0.009714 0.004123 -0.001752 0.015154
*dt_59 -0.193598 0.300074 -0.023881 0.019704 -0.115992 0.011189 -0.100709 0.023504 0.010510 0.009147 0.042013 -0.114628 -0.023393 0.043897 0.057604 -0.030424 -0.016514 0.210113 -0.085786 0.038320 -0.029408 0.136186 -0.115923 0.285920 -0.095975 0.008551 -0.093901 0.030790 -0.019954 0.050483 0.037843 0.115944 0.022727 -0.138329 -0.008952 -0.198620 0.030957 -0.114401 0.139446 0.044357 -0.094675 -0.059422 -0.005118 -0.162315 -0.050410 0.125252 0.002801 -0.058342 0.102485 -0.218159
*dt_60 -0.234259 0.349994 -0.019860 0.036953 -0.126510 0.018008 -0.131382 0.022836 0.028940 0.016440 0.045354 -0.136873 -0.023232 0.051626 0.082353 -0.028921 -0.009601 0.264774 -0.095368 0.044330 -0.033605 0.160188 -0.133613 0.332431 -0.106513 0.013931 -0.113499 0.038680 -0.024238 0.057095 0.054306 0.136447 0.042484 -0.167806 -0.021079 -0.236762 0.041795 -0.119862 0.155257 0.050563 -0.129759 -0.074445 -0.011552 -0.191253 -0.051581 0.153436 0.008959 -0.076362 0.111382 -0.270689
*dt_61 -0.306953 0.507549 -0.028951 0.036640 -0.199770 0.046823 -0.159103 0.041748 0.042836 0.030361 0.053464 -0.177969 -0.032240 0.075465 0.101886 -0.056183 -0.012198 0.352410 -0.137409 0.051215 -0.022825 0.215079 -0.169532 0.479997 -0.140917 0.020880 -0.167376 0.068931 -0.028788 0.069637 0.055018 0.202676 0.048811 -0.211661 -0.026361 -0.312812 0.068593 -0.167706 0.223281 0.061523 -0.165901 -0.100985 -0.010757 -0.271540 -0.052084 0.203346 0.030321 -0.073266 0.159483 -0.366253
*dt_62 -0.104838 0.169685 -0.003442 0.020799 -0.058828 0.020991 -0.053382 0.014364 0.007582 0.004439 0.021881 -0.070889 -0.008832 0.022257 0.036935 -0.006685 -0.005187 0.132538 -0.052353 0.015776 -0.014709 0.078078 -0.065630 0.162047 -0.045352 0.008423 -0.066330 0.023308 -0.011954 0.032226 0.034412 0.060224 0.020358 -0.072842 -0.011412 -0.126333 0.014628 -0.061690 0.083156 0.029118 -0.052376 -0.028439 0.003839 -0.099065 -0.023042 0.079638 0.004159 -0.038715 0.055661 -0.138953
*dt_63 -0.061329 0.085974 -0.018373 -0.000234 -0.044342 0.018051 -0.023451 0.013162 0.008265 0.013273 0.021008 -0.042352 -0.014623 0.026694 0.031627 -0.011439 -0.005860 0.057041 -0.040949 0.001948 -0.007574 0.032484 -0.032271 0.081640 -0.024156 0.005022 -0.040890 0.018238 -0.014820 0.013179 0.007395 0.044102 0.005195 -0.033259 0.009456 -0.075711 0.023281 -0.034783 0.050050 0.008449 -0.039368 -0.025172 -0.001683 -0.044287 -0.023380 0.052731 0.007135 -0.015137 0.019428 -0.076806
*dt_64 -0.149775 0.229118 -0.009079 0.012165 -0.088617 0.018889 -0.078841 0.018365 0.018168 0.015908 0.020253 -0.098895 -0.023724 0.020439 0.055252 -0.015254 -0.010057 0.167389 -0.071189 0.030581 -0.012080 0.116810 -0.091677 0.235455 -0.063523 0.009090 -0.082225 0.027561 -0.005964 0.027844 0.020371 0.093235 0.020699 -0.117025 -0.007556 -0.158455 0.028440 -0.093427 0.099991 0.026394 -0.086260 -0.037871 -0.007666 -0.136072 -0.018685 0.097835 -0.000509 -0.047172 0.078706 -0.180137
*dt_65 -0.080797 0.124664 -0.018474 0.005819 -0.043709 0.015908 -0.036190 0.003720 0.012440 0.005668 0.028799 -0.041604 -0.013092 0.022304 0.038724 -0.007422 -0.014532 0.069572 -0.042228 0.004810 -0.016920 0.044182 -0.032891 0.105181 -0.041978 0.012491 -0.055468 0.020152 -0.012633 0.019679 0.018222 0.043066 0.008925 -0.039872 0.006068 -0.073042 0.024777 -0.037083 0.048105 -0.003707 -0.038859 -0.032651 0.001315 -0.054740 -0.014025 0.065755 0.007220 -0.010512 0.027892 -0.098820
*dt_66 -0.150237 0.220208 -0.015850 0.014809 -0.090536 0.010002 -0.078397 0.016643 0.009907 0.011377 0.019469 -0.092774 -0.024785 0.043326 0.035196 -0.018694 -0.007530 0.150438 -0.056480 0.015178 -0.019365 0.105530 -0.076800 0.222722 -0.063845 0.009039 -0.079460 0.025033 -0.016080 0.026081 0.029612 0.094359 0.024489 -0.103015 0.000015 -0.151506 0.019865 -0.086781 0.095321 0.020799 -0.074519 -0.037963 0.001014 -0.116600 -0.036093 0.097112 0.010540 -0.049996 0.078237 -0.173434
*dt_67 -0.113587 0.158680 -0.024683 0.003780 -0.065715 0.014193 -0.044098 0.020168 0.016432 0.009448 0.024562 -0.055659 -0.032875 0.041346 0.050174 -0.015984 -0.004400 0.098125 -0.063922 0.017931 -0.027799 0.060324 -0.065188 0.148648 -0.052275 0.028237 -0.076633 0.030799 -0.022398 0.023134 0.016436 0.061775 0.016144 -0.063444 -0.011008 -0.115182 0.034570 -0.064878 0.084534 -0.007372 -0.072079 -0.044839 0.014803 -0.088415 -0.045804 0.082105 0.011162 -0.021073 0.023947 -0.122870
*dt_68 -0.079502 0.105316 -0.017102 0.009766 -0.042646 0.017987 -0.042985 0.006767 0.003625 0.014569 0.005504 -0.045643 -0.004674 0.019279 0.014935 -0.002171 0.004582 0.080758 -0.041435 0.005877 -0.001641 0.049798 -0.031136 0.112692 -0.043391 0.000568 -0.034884 0.015451 -0.000945 0.015605 0.024918 0.040361 0.006257 -0.044230 0.000092 -0.073325 0.017184 -0.041815 0.040092 0.012506 -0.048954 -0.019084 -0.005815 -0.054219 -0.019000 0.049244 0.004274 -0.019747 0.034928 -0.075677
*dt_69 -0.162747 0.249876 -0.019439 0.009134 -0.088020 0.025817 -0.078974 0.020110 0.022974 0.007204 0.031438 -0.088166 -0.025986 0.045061 0.044308 -0.026522 -0.017508 0.185687 -0.071267 0.026258 -0.026946 0.117762 -0.091382 0.236267 -0.089187 0.015566 -0.085771 0.028664 -0.013094 0.026266 0.027756 0.089530 0.019246 -0.103707 -0.011396 -0.167395 0.035288 -0.103096 0.109514 0.033600 -0.096753 -0.052814 -0.006151 -0.133300 -0.038792 0.104827 0.000819 -0.046022 0.069780 -0.197753
*dt_70 -0.113620 0.170363 -0.003445 0.002849 -0.053730 0.013625 -0.047974 0.009549 0.002402 0.014910 0.019959 -0.055103 -0.007551 0.018366 0.034094 -0.018910 0.006353 0.115263 -0.038872 0.009563 -0.003929 0.077173 -0.063660 0.148026 -0.061668 0.006935 -0.063907 0.007359 -0.014013 0.015283 0.013108 0.056335 0.013835 -0.068571 0.000679 -0.095417 0.005070 -0.066689 0.079067 0.016035 -0.054262 -0.027154 -0.000202 -0.084234 -0.015563 0.071035 0.004842 -0.043709 0.056962 -0.124620
*dt_71 -0.124813 0.192808 -0.014095 0.009841 -0.072907 0.009800 -0.064891 0.004035 0.006285 -0.000089 0.033701 -0.062688 -0.017026 0.017155 0.044363 -0.014315 -0.011408 0.124822 -0.045125 0.031708 -0.018005 0.077459 -0.068792 0.173552 -0.063470 0.007899 -0.056091 0.016762 -0.013988 0.034394 0.024439 0.079659 0.010108 -0.082031 -0.005454 -0.115866 0.014822 -0.061308 0.089419 0.014999 -0.053438 -0.033073 -0.010318 -0.095403 -0.018530 0.082516 0.007279 -0.039911 0.060426 -0.147887
*dt_72 -0.055695 0.075341 0.002546 -0.004653 -0.020767 -0.002457 -0.027942 -0.001003 -0.001296 0.006528 0.010898 -0.031315 -0.010502 -0.003732 0.018451 -0.000136 -0.001930 0.063277 -0.032976 0.005652 -0.006098 0.033599 -0.022171 0.080874 -0.026004 0.015314 -0.020810 0.017683 0.005143 0.003895 0.019718 0.037028 0.009837 -0.021826 -0.013773 -0.044182 0.008021 -0.024857 0.026776 0.003188 -0.017936 -0.013713 0.003683 -0.055396 -0.001265 0.039094 0.002447 -0.009257 0.019688 -0.045039
*dt_73 -0.164060 0.258675 -0.024012 0.021311 -0.092915 0.025023 -0.106627 0.033816 0.022405 0.009040 0.039034 -0.101521 -0.013013 0.047971 0.032393 -0.018401 -0.013794 0.181680 -0.084198 0.023355 -0.022588 0.112995 -0.088514 0.239970 -0.094403 0.015418 -0.086783 0.030236 -0.027993 0.019395 0.034772 0.092911 0.037943 -0.118149 -0.009811 -0.161518 0.021597 -0.102639 0.121842 0.021719 -0.101692 -0.057550 -0.008602 -0.148250 -0.034898 0.110936 0.001527 -0.042520 0.081108 -0.208946
*dt_74 -0.180598 0.287798 -0.018154 0.018826 -0.098802 0.021327 -0.104667 0.020160 0.009012 0.015963 0.032887 -0.097351 -0.019076 0.032164 0.052264 -0.011006 -0.013122 0.192457 -0.088059 0.034429 -0.012877 0.127993 -0.102558 0.257503 -0.097895 -0.000409 -0.097133 0.038701 -0.031590 0.038338 0.042301 0.112539 0.019859 -0.136205 -0.006681 -0.173823 0.031059 -0.113025 0.120364 0.036000 -0.093520 -0.044984 -0.008763 -0.159523 -0.042673 0.138022 0.006946 -0.042637 0.081439 -0.213714
*dt_75 -0.034168 0.038953 -0.001214 -0.010557 -0.012887 0.000771 -0.013281 0.009298 0.003010 0.002585 0.010815 -0.024841 -0.012377 0.004764 0.019304 0.004366 -0.012094 0.023229 -0.034806 0.001186 -0.008323 0.025375 -0.019120 0.046768 -0.010292 0.012229 -0.029164 -0.000830 -0.015638 0.013915 0.008607 0.008881 0.013093 -0.016190 -0.002587 -0.043468 0.001246 -0.009971 0.029105 -0.009824 -0.018933 -0.021411 0.013233 -0.030582 -0.022345 0.036887 0.006359 -0.008811 -0.002436 -0.046825
*dt_76 -0.208482 0.311446 -0.032168 0.010412 -0.124288 0.015022 -0.108471 0.025944 0.012731 0.014660 0.035412 -0.111405 -0.008863 0.050545 0.068010 -0.023177 -0.010234 0.214395 -0.091111 0.040992 -0.025931 0.137962 -0.112820 0.294459 -0.106901 0.009417 -0.099845 0.045151 -0.019320 0.034248 0.051262 0.111957 0.046657 -0.130027 -0.013917 -0.202886 0.045504 -0.112992 0.146209 0.037600 -0.102607 -0.062351 -0.019457 -0.163237 -0.052861 0.144783 0.013439 -0.064007 0.099449 -0.236893
*dt_77 0.013870 -0.021112 0.008371 -0.011526 0.001142 0.008500 0.013625 0.021202 0.010434 -0.009900 -0.000318 0.008355 0.007054 -0.014923 -0.015095 -0.008794 0.007900 -0.021839 0.001860 0.006906 -0.010005 -0.009135 0.013907 -0.036532 0.004927 -0.014349 0.001200 -0.016316 -0.006918 0.003531 0.006309 0.001092 -0.000013 0.017078 0.021645 0.013553 0.003030 0.003327 -0.008633 -0.026085 0.003639 -0.004367 -0.016915 0.025574 -0.009715 -0.020450 -0.003444 0.013985 -0.008128 0.002740
*dt_78 -0.050801 0.075248 -0.010789 -0.010566 -0.014640 -0.000551 -0.018950 0.022188 0.000023 0.002914 0.017468 -0.021961 -0.002643 0.004810 0.019908 -0.016243 0.003360 0.036470 -0.032235 0.018358 -0.019780 0.050782 -0.023360 0.057194 -0.021824 0.002158 -0.021954 0.009100 -0.020414 0.017153 0.020095 0.038512 0.015422 -0.031767 0.021546 -0.047589 0.012614 -0.025573 0.040578 -0.008341 -0.028305 -0.003037 -0.015866 -0.026784 -0.031436 0.030464 0.012029 -0.003398 0.026607 -0.059910
*dt_79 -0.010899 -0.004432 0.004037 -0.013445 0.013777 -0.002690 -0.006562 0.027351 0.019144 0.008878 0.008237 0.008740 -0.000754 -0.000336 0.000506 -0.004675 0.009006 -0.019276 -0.001684 0.000414 -0.002085 -0.000660 0.000468 -0.005456 0.002793 -0.008799 -0.005120 0.003990 -0.010889 -0.006218 -0.006756 -0.000362 0.009753 0.003571 0.009567 -0.005077 -0.000606 -0.004980 0.001791 -0.022804 -0.005915 0.000600 0.008277 0.013272 -0.004789 0.009731 0.000478 0.008630 -0.007683 -0.006031
*dt_80 -0.082448 0.121958 -0.016444 0.014501 -0.059046 -0.000421 -0.038771 0.012369 0.013656 -0.000842 0.021687 -0.039114 -0.003748 0.012588 0.022857 -0.009844 0.017439 0.088059 -0.034829 0.016420 -0.012676 0.058410 -0.040740 0.110301 -0.032092 0.002102 -0.041522 0.003684 -0.009929 0.011880 0.009800 0.048568 0.023782 -0.061916 0.002799 -0.089664 0.016606 -0.054622 0.060331 -0.000291 -0.046126 -0.027431 -0.017733 -0.074966 -0.011409 0.048238 0.004479 -0.016541 0.044671 -0.094182
*dt_81 -0.083079 0.142914 -0.007846 0.003689 -0.054983 0.016634 -0.037244 0.008069 -0.004436 0.002809 0.009278 -0.040949 -0.019587 0.031081 0.028826 0.002182 -0.012071 0.094240 -0.031717 0.025045 -0.019944 0.067428 -0.046391 0.129043 -0.046444 0.007635 -0.047779 0.007319 -0.016198 0.027086 0.013510 0.047147 0.013263 -0.051043 -0.005000 -0.102731 0.009890 -0.051385 0.054217 0.013598 -0.063101 -0.021962 -0.011250 -0.081189 -0.033060 0.054328 0.001182 -0.017513 0.046026 -0.094039
*dt_82 -0.192156 0.286148 -0.005265 0.013063 -0.106035 0.021330 -0.093051 0.021204 0.015424 0.018238 0.035839 -0.117967 -0.032805 0.036906 0.059756 -0.030255 -0.020238 0.219336 -0.068978 0.025391 -0.015493 0.125026 -0.097219 0.287603 -0.085138 0.020506 -0.092129 0.031053 -0.007892 0.038554 0.045488 0.117515 0.038891 -0.146025 -0.011872 -0.193370 0.030194 -0.106697 0.134369 0.037908 -0.081589 -0.064942 -0.019012 -0.175208 -0.042113 0.132559 0.019412 -0.054490 0.090148 -0.230701
*dt_83 -0.084645 0.136328 -0.002287 0.009695 -0.032589 0.016449 -0.053430 0.021058 -0.006504 -0.007957 0.028368 -0.060185 -0.014578 0.025019 0.000188 -0.008934 -0.003478 0.094234 -0.051901 0.014351 -0.013933 0.059456 -0.046568 0.130909 -0.048332 -0.016243 -0.031959 0.012785 -0.010702 0.013499 0.028211 0.049452 0.032679 -0.047287 0.008164 -0.077194 0.009552 -0.055538 0.056712 0.015217 -0.049287 -0.052571 0.002856 -0.060747 -0.020826 0.060553 -0.010641 -0.020307 0.017392 -0.089077
*dt_84 -0.108387 0.146712 -0.017367 0.016389 -0.049739 0.001461 -0.047657 0.010611 0.016510 0.002347 0.022377 -0.047967 -0.025470 0.016970 0.037245 -0.007987 0.011024 0.109329 -0.060398 0.015741 -0.030013 0.074237 -0.055651 0.137495 -0.046598 -0.002609 -0.049653 0.017271 -0.013493 0.033406 0.019338 0.058873 0.023901 -0.076137 0.009011 -0.105669 0.020998 -0.054830 0.062302 0.005751 -0.067710 -0.041416 -0.015499 -0.082000 -0.026321 0.078625 0.012664 -0.023437 0.046667 -0.134263
*dt_85 -0.190090 0.272237 -0.012921 0.014183 -0.108370 0.024487 -0.092728 0.020858 0.013679 0.010753 0.045755 -0.087433 -0.033029 0.031596 0.050740 -0.022283 0.002347 0.202095 -0.076237 0.030518 -0.016720 0.123729 -0.101224 0.269103 -0.082472 0.019154 -0.099239 0.022224 -0.025898 0.038087 0.043426 0.094233 0.026564 -0.110832 0.003357 -0.174923 0.044261 -0.105603 0.114851 0.011728 -0.099793 -0.057194 -0.006515 -0.147409 -0.032641 0.113342 0.022316 -0.050835 0.083148 -0.218718
*dt_86 -0.091003 0.119245 -0.010260 0.004732 -0.041210 0.007515 -0.048484 0.019752 -0.002623 0.012733 0.027091 -0.038868 -0.009347 0.027500 0.017490 -0.014552 -0.006973 0.088125 -0.037612 0.020516 -0.005607 0.065616 -0.035691 0.116104 -0.033252 0.011108 -0.035965 0.003462 -0.005337 0.013409 0.014331 0.045403 0.013272 -0.058928 -0.005846 -0.096872 0.002675 -0.062579 0.054234 0.004019 -0.060026 -0.024856 -0.008398 -0.069156 -0.028109 0.053718 0.017356 -0.019058 0.038638 -0.085533
*dt_87 -0.169414 0.275446 -0.011111 0.026985 -0.097472 0.023200 -0.084621 0.022566 0.026081 0.005421 0.034246 -0.108535 -0.029252 0.038440 0.053229 -0.024796 -0.008929 0.185556 -0.073377 0.027064 -0.023027 0.119472 -0.109774 0.269068 -0.086328 0.019819 -0.083500 0.024720 -0.017208 0.031725 0.046716 0.101277 0.026767 -0.119769 -0.016658 -0.181967 0.041615 -0.098052 0.119895 0.025608 -0.084546 -0.041025 -0.014915 -0.157903 -0.045978 0.119990 0.016355 -0.049379 0.096510 -0.191467
*dt_88 -0.049193 0.061159 -0.019022 -0.015150 -0.037935 0.013746 -0.022649 0.005331 0.009386 -0.002043 0.020465 -0.026102 -0.014171 0.018430 0.023569 -0.008283 0.001162 0.031622 -0.026068 0.003557 -0.011971 0.012656 -0.017469 0.048328 -0.022266 0.010582 -0.023415 0.008031 -0.015309 -0.005684 0.003375 0.009923 0.016850 -0.012381 0.001086 -0.051772 0.019423 -0.005990 0.035364 -0.028867 -0.019316 -0.016527 0.012766 -0.028415 -0.025866 0.028878 0.008817 -0.020561 -0.000106 -0.042486
*dt_89 -0.214240 0.341859 -0.025401 0.020204 -0.130610 0.020185 -0.119792 0.020511 0.017497 0.008019 0.048030 -0.120473 -0.034281 0.048699 0.077490 -0.022846 -0.002736 0.237644 -0.086131 0.032113 -0.018828 0.160095 -0.127148 0.332250 -0.103335 0.024138 -0.105410 0.044134 -0.031132 0.044575 0.055994 0.124318 0.030298 -0.142159 -0.019158 -0.221772 0.038844 -0.114974 0.160161 0.051712 -0.121266 -0.063987 0.001809 -0.194841 -0.052131 0.140455 0.019907 -0.070150 0.115017 -0.260805
*dt_90 -0.141403 0.220322 -0.017856 0.006757 -0.075860 0.012706 -0.069308 0.018128 0.018366 0.005966 0.022216 -0.075671 -0.004288 0.033764 0.042534 -0.025123 -0.017535 0.171049 -0.069817 0.012393 -0.007186 0.096371 -0.086365 0.223376 -0.078054 0.018731 -0.068231 0.030685 -0.018828 0.028970 0.038047 0.093335 0.029058 -0.095921 -0.008165 -0.155093 0.036728 -0.078285 0.100686 0.039430 -0.063715 -0.045239 -0.012808 -0.123878 -0.027227 0.108204 0.003601 -0.044345 0.069475 -0.160643
*dt_91 -0.123459 0.199497 -0.012744 0.006160 -0.070484 0.018903 -0.066944 0.018439 0.014385 0.006324 0.023278 -0.080626 -0.023492 0.033008 0.030330 -0.011523 0.001076 0.153993 -0.055498 0.016539 -0.007782 0.086996 -0.069033 0.184087 -0.070035 0.016671 -0.075530 0.031970 -0.006077 0.021793 0.031567 0.083293 0.020752 -0.088145 -0.004044 -0.129603 0.023419 -0.066072 0.084172 0.033007 -0.066242 -0.050343 -0.003888 -0.117527 -0.023836 0.082142 -0.004519 -0.032532 0.067977 -0.138404
*dt_92 -0.094472 0.140530 -0.009260 0.003432 -0.042849 0.009159 -0.044037 0.008148 0.016097 0.008471 0.012806 -0.055644 -0.006472 0.003247 0.036553 -0.003809 0.001996 0.092078 -0.028107 0.020693 -0.015298 0.063326 -0.041873 0.134104 -0.030550 0.011230 -0.043958 0.024683 -0.014451 0.021706 0.011703 0.055044 0.009251 -0.065856 0.000589 -0.076532 0.022494 -0.040579 0.044348 0.018444 -0.035556 -0.034466 0.006052 -0.065227 -0.019954 0.065678 -0.002243 -0.018962 0.050981 -0.100066
*dt_93 -0.153513 0.235842 -0.019072 0.012055 -0.079850 0.020359 -0.090646 0.028146 0.025943 0.017153 0.040553 -0.102216 -0.025555 0.031261 0.055270 -0.021944 -0.017447 0.184668 -0.058289 0.017955 -0.007938 0.105946 -0.094530 0.227740 -0.067421 0.009560 -0.070823 0.034598 -0.022927 0.033785 0.038563 0.102092 0.025083 -0.101626 -0.013208 -0.158835 0.032520 -0.095148 0.100511 0.028762 -0.086479 -0.036822 -0.007478 -0.130423 -0.028527 0.098444 0.006377 -0.054900 0.080079 -0.171688
*dt_94 -0.132544 0.190374 -0.013981 0.008189 -0.082494 0.023792 -0.063337 0.005558 0.004710 0.011367 0.021819 -0.075450 -0.009046 0.028826 0.038867 -0.014955 -0.010575 0.149428 -0.051189 0.029289 -0.020090 0.080738 -0.070796 0.199050 -0.060777 0.014550 -0.058797 0.027815 -0.014215 0.026404 0.029775 0.076526 0.021911 -0.089690 -0.010633 -0.134248 0.027393 -0.067276 0.092813 0.032383 -0.057147 -0.041925 -0.007709 -0.118740 -0.022722 0.087655 0.006029 -0.031087 0.051862 -0.151923
*dt_95 -0.005269 0.006377 -0.005293 -0.000845 0.001993 0.007766 0.007894 -0.008164 -0.009836 -0.000302 -0.008341 -0.007740 0.001999 0.001045 0.002152 -0.006143 0.009445 -0.006191 -0.006715 0.002220 -0.004252 0.009232 0.008584 -0.003324 0.003854 -0.001071 0.006073 -0.008129 -0.000208 -0.009865 0.003521 -0.002586 0.002748 -0.005819 0.007203 -0.007000 0.007784 -0.005988 0.002817 0.009917 -0.003076 0.004078 0.007976 -0.008375 -0.007105 0.007213 -0.006661 0.009564 0.008999 -0.001779
*dt_96 -0.084961 0.151702 -0.011299 0.007174 -0.057218 0.006927 -0.058830 0.016124 0.008487 0.015812 0.026779 -0.048220 -0.005172 0.013587 0.029595 -0.004321 0.008618 0.089983 -0.055285 0.012326 -0.024292 0.069366 -0.057396 0.129456 -0.051988 0.000455 -0.051672 0.018406 -0.010990 0.031049 0.028689 0.057348 0.026988 -0.050483 0.005962 -0.107547 0.017262 -0.060363 0.061914 0.004227 -0.039433 -0.034926 -0.005891 -0.058436 -0.022641 0.072778 0.000401 -0.021540 0.040446 -0.130277
*dt_97 -0.070911 0.105203 -0.013078 0.004145 -0.030854 0.002658 -0.026070 0.018812 0.011485 0.003708 0.011374 -0.040932 -0.004563 0.011634 0.012272 -0.004074 0.006362 0.064257 -0.029017 0.026385 -0.027992 0.051444 -0.038712 0.083777 -0.031795 0.001611 -0.039664 0.002129 -0.021238 0.018257 0.024756 0.042322 0.011749 -0.040719 -0.000480 -0.078208 0.004813 -0.028652 0.052026 0.007885 -0.043822 -0.034090 -0.017326 -0.038549 -0.030734 0.046825 0.004647 -0.013562 0.024585 -0.097533
*dt_98 -0.096487 0.143830 -0.015533 0.008747 -0.063568 0.013573 -0.054147 0.016029 0.010429 0.009774 0.016933 -0.048822 -0.007898 0.020043 0.026945 0.001005 0.008044 0.082405 -0.045901 0.014133 -0.016775 0.054384 -0.066927 0.140079 -0.047223 -0.006400 -0.034918 0.016203 -0.031859 0.029982 0.018188 0.069133 0.022649 -0.052760 0.001933 -0.107398 0.020176 -0.056237 0.078114 0.020547 -0.049902 -0.018072 -0.006941 -0.055906 -0.025212 0.054513 0.014481 -0.023479 0.038715 -0.128235
*dt_99 -0.165160 0.240720 -0.009227 0.012677 -0.102974 0.013423 -0.091417 0.021057 0.013140 0.012161 0.030528 -0.079013 -0.016352 0.031662 0.050039 -0.029662 0.007937 0.164371 -0.083184 0.028184 -0.030025 0.117663 -0.098082 0.219829 -0.066029 0.013266 -0.088866 0.017297 -0.024201 0.042555 0.038734 0.098776 0.018422 -0.107293 -0.007220 -0.169619 0.025536 -0.080007 0.114245 0.031070 -0.095175 -0.061100 -0.003038 -0.131378 -0.046330 0.118173 0.025728 -0.038859 0.072015 -0.187306
*dt_100 -0.123117 0.203510 -0.024808 0.019424 -0.080250 0.020602 -0.067755 0.035082 0.024237 0.006464 0.020569 -0.070446 -0.019424 0.023563 0.046054 -0.017394 -0.008563 0.139298 -0.070642 0.026074 -0.028843 0.097753 -0.070669 0.201456 -0.058759 0.002215 -0.072288 0.032927 -0.020159 0.035386 0.025105 0.092250 0.019289 -0.095590 0.006243 -0.144593 0.029948 -0.082223 0.090461 0.004812 -0.073235 -0.035746 -0.003802 -0.112137 -0.027211 0.088088 0.008420 -0.028505 0.060677 -0.159916
*dt_101 -0.110908 0.177733 -0.000716 0.010548 -0.051782 0.002095 -0.072224 0.015807 -0.000142 0.009181 0.020604 -0.068910 -0.005288 0.028099 0.026385 -0.020061 0.007841 0.122720 -0.054941 0.015625 -0.004357 0.078036 -0.068326 0.163904 -0.052863 -0.002046 -0.057551 0.026257 -0.015039 0.030961 0.029380 0.059932 0.027502 -0.090280 -0.016395 -0.102572 0.005713 -0.060247 0.076669 0.026789 -0.062619 -0.051477 -0.002392 -0.094771 -0.025143 0.068446 0.006937 -0.022241 0.047703 -0.129027
*dt_102 -0.222305 0.366895 -0.015313 0.021353 -0.141858 0.028670 -0.131177 0.026929 0.024961 0.017696 0.032376 -0.127987 -0.015171 0.057439 0.068747 -0.034819 -0.006262 0.256296 -0.104992 0.043071 -0.028002 0.165278 -0.122917 0.344170 -0.113332 0.006207 -0.130158 0.056071 -0.014559 0.043003 0.055856 0.123598 0.043304 -0.176471 -0.027642 -0.236445 0.043921 -0.130002 0.147850 0.056980 -0.124057 -0.066585 -0.016304 -0.205082 -0.047061 0.156503 0.024502 -0.072147 0.116371 -0.255387
*dt_103 -0.166089 0.270644 -0.019057 0.025201 -0.092778 0.016705 -0.103866 0.010474 0.007358 0.019526 0.027654 -0.104620 -0.022762 0.028846 0.064110 -0.022444 -0.015066 0.197672 -0.073261 0.018220 -0.011148 0.113499 -0.089043 0.268386 -0.090582 0.020481 -0.094389 0.045818 -0.014020 0.025495 0.030870 0.111460 0.028097 -0.114261 -0.011472 -0.162563 0.036119 -0.095041 0.110860 0.028442 -0.095172 -0.049924 -0.012342 -0.151116 -0.026755 0.126956 0.004861 -0.041160 0.090038 -0.198982
*dt_104 -0.117838 0.176942 -0.005478 0.020936 -0.058672 0.021687 -0.058872 0.020631 0.018172 0.004883 0.031379 -0.054671 -0.017470 0.038824 0.035016 -0.002246 -0.000722 0.121900 -0.045039 0.025099 -0.006544 0.072850 -0.047585 0.167352 -0.061520 0.009924 -0.052677 0.031180 -0.004795 0.011420 0.018583 0.057943 0.012836 -0.082388 -0.007865 -0.117186 0.002323 -0.072796 0.066197 0.022321 -0.069602 -0.025048 0.002502 -0.087210 -0.021719 0.076459 0.014672 -0.024644 0.051329 -0.127012
*dt_105 -0.068033 0.119441 -0.016124 -0.001839 -0.045608 0.012073 -0.028774 0.006902 0.004718 0.007056 0.014974 -0.047105 -0.017509 0.025209 0.011038 -0.000149 -0.008822 0.071745 -0.045510 0.024887 -0.020038 0.049017 -0.053442 0.097926 -0.046151 0.007339 -0.033986 0.000836 -0.020764 0.016699 0.012021 0.049152 0.007033 -0.040157 0.010154 -0.079948 0.004830 -0.043253 0.056303 0.010163 -0.049236 -0.019936 -0.005327 -0.050208 -0.028939 0.044810 0.013520 -0.007327 0.026367 -0.098175
*dt_106 -0.181063 0.287780 -0.012509 0.020200 -0.115238 0.026493 -0.108324 0.011851 0.015653 0.008055 0.035454 -0.111173 -0.011119 0.035199 0.058296 -0.021923 -0.011868 0.214740 -0.087744 0.028970 -0.024844 0.138102 -0.110051 0.268941 -0.079683 0.002961 -0.086595 0.046611 -0.017836 0.046162 0.048584 0.117767 0.024253 -0.140010 -0.013836 -0.186511 0.025189 -0.110150 0.117046 0.032306 -0.090514 -0.047144 -0.000130 -0.154883 -0.037914 0.131281 0.014599 -0.046849 0.097531 -0.215517
*dt_107 -0.107134 0.166101 -0.012862 0.017897 -0.063677 0.023868 -0.048096 0.007520 -0.002170 0.002600 0.021837 -0.068050 -0.008573 0.025711 0.026715 -0.005233 -0.012368 0.121210 -0.045593 0.013419 -0.011021 0.075862 -0.070150 0.156771 -0.040770 0.006351 -0.047127 0.014541 -0.007362 0.032034 0.015399 0.064021 0.024875 -0.079302 -0.014407 -0.119426 0.027967 -0.057842 0.072221 0.026549 -0.058025 -0.037344 0.000907 -0.083608 -0.024073 0.075356 0.023063 -0.029514 0.049547 -0.120030
*dt_108 -0.117771 0.193670 -0.013583 0.026912 -0.078697 0.014759 -0.058116 0.017815 -0.001338 0.007141 0.023103 -0.057825 -0.020368 0.017738 0.036439 -0.004085 -0.009718 0.136442 -0.065922 0.016554 -0.021128 0.085127 -0.068206 0.174110 -0.063132 0.000598 -0.070203 0.014309 -0.007615 0.031987 0.020717 0.085307 0.026725 -0.075094 -0.001704 -0.122666 0.017887 -0.078828 0.077016 0.019632 -0.077953 -0.035161 0.003521 -0.111687 -0.028108 0.091335 0.023529 -0.039047 0.054400 -0.136423
*dt_109 -0.149049 0.241098 -0.016243 0.014104 -0.090409 0.020718 -0.077985 0.009732 0.018907 0.017926 0.020090 -0.081815 -0.021503 0.023718 0.055448 -0.004441 0.000499 0.167594 -0.065637 0.032656 -0.028136 0.103599 -0.078062 0.223505 -0.056761 0.019281 -0.073298 0.028038 -0.027974 0.038080 0.034809 0.099096 0.035352 -0.099942 -0.011281 -0.163463 0.024290 -0.077652 0.093405 0.028616 -0.079616 -0.054099 0.004638 -0.125490 -0.042038 0.100935 0.009186 -0.047035 0.071410 -0.166313
*dt_110 -0.193993 0.315916 -0.020129 0.034314 -0.112225 0.022607 -0.100349 0.019125 0.031579 0.011131 0.050202 -0.128177 -0.013780 0.037743 0.079954 -0.026412 -0.022326 0.240955 -0.097642 0.031686 -0.018672 0.142041 -0.117892 0.297199 -0.093407 0.020009 -0.105732 0.035720 -0.028568 0.034953 0.038684 0.132701 0.036547 -0.135314 -0.012503 -0.215720 0.041247 -0.122190 0.146421 0.035272 -0.102620 -0.067605 -0.005743 -0.176229 -0.047597 0.140358 0.008706 -0.050688 0.099338 -0.240626
*dt_111 -0.138477 0.190824 -0.006876 0.014598 -0.083172 0.007112 -0.071674 0.013125 0.019068 -0.000509 0.020747 -0.085427 -0.001284 0.022815 0.042764 -0.026538 -0.001711 0.142800 -0.055722 0.022918 -0.011693 0.086503 -0.072972 0.196004 -0.068149 0.013678 -0.055775 0.037164 -0.014955 0.016168 0.018040 0.083418 0.024063 -0.091078 -0.013849 -0.138822 0.022268 -0.077541 0.078615 0.031364 -0.076481 -0.045337 0.002805 -0.103889 -0.025166 0.092377 0.002094 -0.038551 0.072076 -0.154299
*dt_112 -0.171506 0.285774 -0.011861 0.005413 -0.102289 0.027276 -0.089890 0.011876 0.023107 0.007746 0.026958 -0.105288 -0.031677 0.034146 0.064364 -0.027769 -0.005746 0.202746 -0.072899 0.037990 -0.016662 0.119657 -0.095384 0.263930 -0.078233 0.016927 -0.094485 0.031880 -0.020422 0.031268 0.037688 0.111467 0.030921 -0.114376 -0.021808 -0.175299 0.041962 -0.102215 0.110107 0.043682 -0.099068 -0.045116 -0.002307 -0.159002 -0.041155 0.129002 0.006154 -0.056236 0.100173 -0.206223
*dt_113 -0.305506 0.467029 -0.021554 0.037844 -0.182941 0.028483 -0.166952 0.024028 0.035369 0.031138 0.067611 -0.172812 -0.030648 0.068641 0.100685 -0.033071 -0.017665 0.351938 -0.130786 0.040745 -0.038912 0.206776 -0.159348 0.464588 -0.142430 0.027912 -0.160617 0.054818 -0.022162 0.054380 0.070294 0.178751 0.054160 -0.201630 -0.026948 -0.297062 0.049870 -0.159719 0.207624 0.051447 -0.158615 -0.092549 -0.020014 -0.276851 -0.066859 0.196049 0.013152 -0.082384 0.157451 -0.342426
*dt_114 -0.115442 0.174099 -0.009033 0.015137 -0.079696 0.025969 -0.060235 0.013334 0.005111 0.013886 0.031829 -0.060757 -0.018671 0.035914 0.044128 -0.002818 -0.003399 0.136130 -0.048189 0.011662 -0.001940 0.075587 -0.059672 0.156015 -0.047372 0.011969 -0.059862 0.030134 -0.011944 0.021798 0.028360 0.073618 0.014345 -0.068442 -0.025931 -0.108552 0.023407 -0.064175 0.059004 0.028969 -0.056159 -0.029843 -0.012090 -0.111437 -0.014496 0.083611 0.015428 -0.037095 0.053304 -0.127798
*dt_115 -0.159372 0.243405 -0.018772 0.016462 -0.093420 0.016626 -0.079727 0.015344 0.006368 -0.000870 0.036686 -0.092201 -0.024189 0.035892 0.057998 -0.030572 -0.013975 0.183264 -0.066367 0.021318 -0.009837 0.116607 -0.100929 0.241871 -0.076856 0.018553 -0.081857 0.024096 -0.023607 0.027023 0.031071 0.087122 0.032465 -0.121229 -0.018043 -0.167127 0.028525 -0.100530 0.107166 0.029396 -0.085687 -0.047511 -0.013229 -0.146271 -0.023889 0.108262 0.022002 -0.047888 0.083154 -0.195136
*dt_116 -0.101430 0.155244 -0.012003 0.006173 -0.063867 0.015696 -0.055938 0.017313 0.005921 -0.003222 0.010125 -0.070076 -0.017917 0.032329 0.031287 -0.016679 -0.020462 0.105170 -0.032721 0.005296 0.000482 0.063293 -0.061620 0.139054 -0.046393 0.005314 -0.049611 0.013117 -0.014110 0.020351 0.019518 0.051587 0.006699 -0.058986 -0.002191 -0.088290 0.020291 -0.048025 0.064475 0.013963 -0.049942 -0.034779 -0.011111 -0.089302 -0.022714 0.076945 0.002542 -0.029042 0.048182 -0.104439
*dt_117 -0.043995 0.084690 -0.015035 -0.000976 -0.020240 0.003068 -0.024124 0.019933 0.013347 -0.005232 0.020606 -0.023887 -0.007438 0.010327 0.003781 0.004845 -0.000873 0.037234 -0.022088 0.016375 -0.010244 0.030506 -0.035537 0.065688 -0.028695 0.002519 -0.025990 -0.002675 -0.018280 0.020038 0.021323 0.022629 0.006340 -0.016796 0.002199 -0.045433 0.005252 -0.022405 0.027169 -0.002858 -0.027252 -0.020836 -0.007414 -0.040752 -0.011683 0.025911 0.006504 -0.003734 0.010918 -0.067886
*dt_118 -0.173876 0.273836 -0.019906 0.018946 -0.104536 0.014911 -0.102573 0.011754 0.022825 0.016785 0.039099 -0.110776 -0.028454 0.026071 0.062054 -0.028711 0.001472 0.211643 -0.077894 0.024044 -0.010168 0.128098 -0.098121 0.263338 -0.078445 0.008260 -0.091729 0.027046 -0.022527 0.034263 0.044713 0.096970 0.035158 -0.117307 -0.025801 -0.172715 0.029566 -0.093082 0.115608 0.043557 -0.089587 -0.062443 -0.017373 -0.162882 -0.033478 0.131813 -0.000451 -0.040120 0.085112 -0.197701
*dt_119 -0.112670 0.178681 -0.003174 0.008546 -0.063344 0.003180 -0.059154 0.015424 0.017823 0.008507 0.023291 -0.051759 -0.011298 0.026599 0.034295 -0.012221 0.005999 0.131025 -0.046805 0.006694 -0.016070 0.078171 -0.062991 0.169739 -0.048985 0.017337 -0.048761 0.025917 -0.011648 0.033351 0.013945 0.055613 0.005807 -0.078069 -0.016381 -0.123440 0.017774 -0.071449 0.070569 0.032290 -0.067793 -0.047580 -0.008399 -0.087233 -0.025617 0.081626 0.006451 -0.022880 0.065135 -0.117051
*dt_120 -0.155390 0.244950 -0.010937 0.033442 -0.079936 0.009422 -0.098359 0.019934 0.003784 0.006356 0.040885 -0.082813 -0.025338 0.013912 0.040306 -0.036411 -0.007841 0.181116 -0.060154 0.007511 -0.009132 0.095996 -0.075944 0.231662 -0.088995 0.024448 -0.063905 0.046430 -0.014376 0.032966 0.017573 0.091068 0.023012 -0.121190 -0.021010 -0.153774 0.017018 -0.086064 0.092418 0.032242 -0.092616 -0.067204 0.003441 -0.128649 -0.036913 0.098398 -0.011472 -0.037299 0.061093 -0.181241
*dt_121 -0.115204 0.198931 -0.010235 0.017660 -0.056086 0.008101 -0.068529 0.019312 0.018544 -0.002661 0.026183 -0.064733 -0.017938 0.003941 0.050355 -0.031772 -0.002962 0.144728 -0.049679 0.017619 -0.014157 0.087020 -0.067081 0.185886 -0.063761 0.008834 -0.056426 0.033867 -0.007423 0.032866 0.014289 0.067587 0.025300 -0.094702 -0.012287 -0.118392 0.028618 -0.074816 0.064370 0.018098 -0.062827 -0.056777 0.013651 -0.116719 -0.021461 0.090526 -0.001673 -0.042787 0.061072 -0.132683
*dt_122 -0.170898 0.259086 -0.018237 0.015281 -0.096499 0.018066 -0.081790 0.025558 0.025152 -0.002461 0.030541 -0.085302 -0.019815 0.038029 0.054888 -0.011669 0.007172 0.187730 -0.062194 0.014750 -0.010467 0.121717 -0.095919 0.252872 -0.075910 0.012861 -0.088662 0.035005 -0.010617 0.038075 0.036558 0.098788 0.017079 -0.110892 -0.009760 -0.172389 0.033617 -0.093392 0.106237 0.024860 -0.093508 -0.054783 -0.003910 -0.131232 -0.029477 0.103176 0.019107 -0.042605 0.091210 -0.182693
*dt_123 -0.123996 0.189745 -0.006946 0.011671 -0.078437 0.015073 -0.061049 0.003974 0.018181 0.010325 0.018561 -0.078355 -0.007234 0.036591 0.046550 -0.026580 -0.005440 0.135225 -0.051582 0.012596 -0.013764 0.091090 -0.058253 0.195247 -0.059952 0.009010 -0.076578 0.015277 -0.017164 0.020270 0.015361 0.085578 0.017944 -0.094620 -0.007145 -0.116952 0.028019 -0.075692 0.085600 0.037580 -0.069592 -0.039944 0.003388 -0.100494 -0.033260 0.087726 0.009053 -0.036248 0.063024 -0.144706
*dt_124 -0.189531 0.314890 -0.008854 0.034357 -0.128336 0.026661 -0.095170 0.026175 0.008487 0.018038 0.052162 -0.120430 -0.007912 0.040837 0.064693 -0.038408 0.007661 0.223754 -0.072111 0.045020 -0.022074 0.155249 -0.101795 0.307543 -0.089118 0.019756 -0.113035 0.043818 -0.025278 0.040860 0.036915 0.127147 0.039031 -0.139325 -0.010282 -0.194535 0.037058 -0.110138 0.132568 0.028872 -0.112092 -0.073358 -0.012055 -0.165682 -0.032765 0.136174 0.026219 -0.078304 0.107867 -0.238703
*dt_125 -0.117360 0.192445 -0.015384 0.012176 -0.064321 0.003435 -0.054218 0.019544 -0.002169 0.018816 0.021271 -0.066128 0.001726 0.019307 0.053344 -0.029075 0.007304 0.131675 -0.046402 0.029180 -0.019745 0.096264 -0.066611 0.181059 -0.052670 0.016327 -0.055525 0.026566 -0.016317 0.021240 0.015372 0.057861 0.003047 -0.084189 -0.000962 -0.113316 0.027084 -0.061915 0.080809 0.032537 -0.053611 -0.039004 0.000676 -0.111256 -0.012187 0.090660 0.008069 -0.043597 0.064608 -0.126735
*dt_126 -0.156445 0.251576 -0.013621 0.016054 -0.098206 0.008764 -0.079003 0.020688 0.008884 0.010935 0.026825 -0.098470 -0.022129 0.026899 0.040110 -0.029737 -0.002219 0.176952 -0.061187 0.023006 -0.010238 0.113330 -0.094251 0.244483 -0.073374 0.014857 -0.086533 0.031026 -0.005601 0.036436 0.028911 0.085390 0.029372 -0.120268 -0.004076 -0.168175 0.026202 -0.097547 0.099453 0.026387 -0.072260 -0.057050 0.002190 -0.131597 -0.040043 0.117048 0.016829 -0.046084 0.084780 -0.181751
*dt_127 -0.195289 0.303390 -0.017152 0.016640 -0.108969 0.023066 -0.110318 0.006716 0.012770 0.006991 0.036156 -0.112936 -0.027206 0.047073 0.060685 -0.040226 -0.017287 0.215005 -0.077678 0.025367 -0.005004 0.124726 -0.098564 0.283731 -0.080640 0.013569 -0.111404 0.037407 -0.022708 0.032200 0.034484 0.102204 0.028071 -0.137008 -0.014835 -0.198900 0.035704 -0.098766 0.117251 0.043840 -0.098811 -0.045470 -0.000060 -0.159643 -0.037043 0.130730 0.003037 -0.044919 0.104778 -0.212288
*dt_128 -0.048698 0.094368 -0.000460 0.004704 -0.039678 -0.002142 -0.036038 0.008677 0.014556 0.005300 0.020578 -0.029627 -0.010783 0.012674 0.023641 -0.006659 0.002772 0.064856 -0.035313 0.014935 -0.006283 0.030395 -0.027494 0.075589 -0.024766 0.001746 -0.029696 0.015371 -0.009648 0.011618 0.003405 0.041966 0.012683 -0.025370 0.005059 -0.063286 0.019115 -0.034694 0.048275 0.002240 -0.033376 -0.021156 -0.010607 -0.047893 -0.021271 0.040445 -0.002605 -0.022946 0.017098 -0.072347
*dt_129 -0.072399 0.107677 -0.011300 -0.000547 -0.043180 0.003916 -0.026653 0.003872 -0.000720 0.007897 0.023003 -0.036241 -0.005381 0.005269 0.025343 -0.000321 -0.000638 0.050893 -0.035306 0.015918 -0.010349 0.044740 -0.046281 0.080090 -0.032437 -0.001578 -0.038352 0.011617 -0.010191 0.013579 0.012748 0.046003 0.021090 -0.044369 0.006761 -0.061714 0.018290 -0.047402 0.043243 0.013358 -0.031238 -0.011689 -0.017440 -0.036411 -0.019153 0.054460 0.005894 -0.013426 0.034990 -0.085237
*dt_130 -0.051491 0.071941 -0.012612 0.002887 -0.039779 -0.006058 -0.023957 0.016867 0.013096 0.004405 0.007060 -0.021024 0.003666 0.016752 0.006933 -0.007931 -0.005403 0.039898 -0.038426 0.018069 -0.012557 0.028025 -0.043207 0.058002 -0.017258 -0.006048 -0.012679 0.003360 -0.015625 0.017263 0.011985 0.024414 0.014479 -0.036218 0.010354 -0.043857 0.004735 -0.027768 0.027380 -0.007990 -0.034836 -0.016789 -0.013665 -0.035532 -0.019146 0.033830 0.001765 -0.015370 0.032652 -0.068419
*dt_131 -0.092394 0.169425 -0.000415 0.005400 -0.058310 0.005893 -0.047458 0.001157 0.011822 0.015189 0.003661 -0.064582 -0.009021 0.024356 0.032010 -0.021276 -0.000508 0.109344 -0.049085 0.024221 -0.006289 0.073203 -0.047577 0.159720 -0.061263 -0.000326 -0.060152 0.033991 -0.007285 0.025577 0.020984 0.072614 0.008119 -0.082908 0.000941 -0.109431 0.024759 -0.059945 0.075051 0.030579 -0.049690 -0.029843 -0.013349 -0.093697 -0.010366 0.066321 0.001044 -0.038513 0.051588 -0.115643
*dt_132 -0.153836 0.241220 -0.005436 0.007732 -0.097471 0.008918 -0.084629 0.009621 0.006653 0.015490 0.028861 -0.078668 -0.015643 0.027060 0.039983 -0.028513 -0.014766 0.174068 -0.067412 0.035221 -0.006723 0.096759 -0.093573 0.226920 -0.077261 0.002903 -0.082236 0.029778 -0.022429 0.038484 0.032295 0.083315 0.017425 -0.108142 -0.007752 -0.153736 0.031344 -0.090928 0.089466 0.036382 -0.082666 -0.053301 -0.017804 -0.132910 -0.038596 0.104662 0.004453 -0.039792 0.083736 -0.173660
*dt_133 -0.151743 0.229149 -0.015869 0.005555 -0.082911 0.016616 -0.081083 0.028908 0.015131 0.009763 0.021291 -0.083068 -0.027904 0.038623 0.046292 -0.017979 0.005171 0.149857 -0.079053 0.041090 -0.017213 0.106258 -0.083969 0.208014 -0.066204 -0.002036 -0.087070 0.028556 -0.028568 0.041399 0.036344 0.097385 0.033098 -0.101138 -0.010662 -0.161513 0.029950 -0.083982 0.109533 0.021752 -0.089973 -0.057702 -0.014372 -0.120832 -0.040896 0.104567 0.008618 -0.031771 0.075719 -0.191195
*dt_134 -0.107490 0.173044 -0.021205 0.010498 -0.078149 0.026442 -0.054393 0.018382 0.021799 0.023968 0.021835 -0.058828 0.000818 0.023710 0.025241 -0.019071 0.010733 0.131641 -0.046073 0.032896 -0.021709 0.101202 -0.077186 0.180994 -0.070895 0.006769 -0.054454 0.014174 0.005627 0.041189 0.025258 0.069386 0.028868 -0.078409 -0.009985 -0.120311 0.015995 -0.068114 0.064590 0.019845 -0.062756 -0.025032 -0.001839 -0.100198 -0.015838 0.088050 0.005687 -0.037250 0.056216 -0.137680
*dt_135 -0.159402 0.249349 -0.025674 0.027449 -0.088537 0.026557 -0.079143 0.020497 0.014170 0.024254 0.041667 -0.087435 -0.014381 0.023020 0.048897 -0.033439 -0.008387 0.193249 -0.072086 0.028190 -0.017451 0.119016 -0.096723 0.238124 -0.090206 0.018628 -0.085794 0.026958 -0.009427 0.043078 0.021399 0.098061 0.037754 -0.105817 -0.001124 -0.171790 0.026413 -0.100281 0.108666 0.039290 -0.078142 -0.033871 -0.009051 -0.143968 -0.034904 0.120534 0.016362 -0.056114 0.072844 -0.191949
*dt_136 -0.079242 0.126083 -0.024594 0.018617 -0.054129 0.015081 -0.043244 0.018019 0.013416 0.021220 0.012307 -0.055001 0.001409 0.022783 0.019176 -0.024665 0.003932 0.085686 -0.044193 0.019572 -0.010224 0.069878 -0.057248 0.121076 -0.049891 0.010805 -0.034315 0.020625 0.001550 0.031359 0.018429 0.048545 0.011720 -0.057760 -0.005130 -0.092201 0.013034 -0.042877 0.050475 0.012483 -0.049808 -0.011567 -0.001105 -0.079358 -0.026481 0.053380 0.001931 -0.035911 0.034104 -0.102805
*dt_137 -0.130799 0.195058 -0.029329 0.018337 -0.082202 0.013114 -0.060940 0.012559 0.006189 0.016144 0.020530 -0.073651 -0.011719 0.014331 0.039685 -0.021884 -0.006925 0.131038 -0.067350 0.029941 -0.016810 0.099552 -0.066190 0.188456 -0.071882 -0.002052 -0.059835 0.023658 0.002500 0.039322 0.015032 0.078560 0.030440 -0.079656 -0.004057 -0.130969 0.027961 -0.068730 0.087985 0.030461 -0.064310 -0.036947 -0.007085 -0.105392 -0.017866 0.084085 0.010184 -0.045040 0.054951 -0.142617
*dt_138 -0.185597 0.306464 -0.012092 0.029340 -0.118703 0.008304 -0.108478 0.024635 0.028634 0.021372 0.045634 -0.102682 -0.022785 0.039957 0.067539 -0.017052 -0.009894 0.212146 -0.072441 0.021016 -0.016425 0.127064 -0.100795 0.290082 -0.094056 0.010509 -0.100227 0.036018 -0.013065 0.042437 0.028391 0.121837 0.037649 -0.138452 -0.012521 -0.178432 0.027366 -0.097556 0.118477 0.035173 -0.091780 -0.048617 -0.012900 -0.158122 -0.035171 0.137000 0.019458 -0.044731 0.086677 -0.210719
*dt_139 -0.143659 0.226624 -0.014108 0.031544 -0.087862 0.016321 -0.080338 0.016652 0.013863 0.000562 0.034927 -0.089735 -0.016845 0.028426 0.042452 -0.015868 -0.003731 0.162879 -0.071564 0.007247 -0.010969 0.093607 -0.085665 0.224154 -0.067746 0.017614 -0.070434 0.032867 -0.017942 0.038309 0.017576 0.098451 0.032859 -0.113298 -0.025526 -0.141041 0.025595 -0.076167 0.086312 0.032568 -0.078919 -0.049237 0.005989 -0.136132 -0.037280 0.108073 0.001257 -0.049040 0.061332 -0.164942
*dt_140 -0.198171 0.295006 -0.008106 0.020840 -0.107650 0.009466 -0.110808 0.012747 0.031182 0.004932 0.048945 -0.110645 -0.027619 0.044411 0.055171 -0.032213 0.000325 0.216901 -0.082110 0.018576 -0.016739 0.140669 -0.107635 0.281639 -0.095641 0.022791 -0.107674 0.028915 -0.021955 0.030352 0.033192 0.119296 0.032680 -0.142224 -0.027004 -0.179515 0.029062 -0.105574 0.126650 0.027502 -0.097480 -0.048992 -0.005200 -0.151310 -0.030816 0.130501 0.017227 -0.042659 0.095682 -0.208882
*dt_141 -0.150962 0.238499 -0.007523 0.011571 -0.083058 0.027639 -0.078494 0.016921 0.020461 0.021380 0.036279 -0.092903 -0.011918 0.025395 0.033193 -0.019833 0.001433 0.165482 -0.061308 0.018592 -0.012566 0.104985 -0.073921 0.222396 -0.081045 0.016365 -0.083209 0.016410 -0.024366 0.030743 0.038924 0.091379 0.013835 -0.102520 -0.003434 -0.144395 0.017905 -0.084904 0.090765 0.020396 -0.092134 -0.048079 -0.003507 -0.127519 -0.034810 0.092897 0.006919 -0.051350 0.061765 -0.166341
*dt_142 -0.058538 0.086581 0.000736 0.003834 -0.039651 0.014269 -0.024720 0.015809 -0.000337 -0.004931 0.006292 -0.040244 -0.004123 0.021158 0.010402 -0.013153 -0.003366 0.072940 -0.028190 -0.000346 -0.001792 0.033487 -0.028676 0.083484 -0.019438 0.011453 -0.022105 0.008777 -0.013597 0.020908 0.016088 0.038664 0.016484 -0.050732 -0.012140 -0.060999 0.010779 -0.040092 0.045347 0.003913 -0.029928 -0.023191 -0.009848 -0.042938 -0.007467 0.030449 0.000403 -0.025793 0.037408 -0.068271
*dt_143 -0.140427 0.217420 -0.018535 0.016070 -0.081874 0.009287 -0.077831 0.011246 0.019848 0.017288 0.021401 -0.077817 -0.005421 0.038383 0.058320 -0.024884 -0.019363 0.155850 -0.067208 0.030971 -0.017662 0.091487 -0.080928 0.223293 -0.079933 0.013724 -0.076265 0.027464 0.003126 0.029899 0.021761 0.086934 0.017547 -0.094421 -0.004993 -0.129005 0.032138 -0.082066 0.091518 0.039704 -0.065464 -0.045880 -0.001050 -0.125331 -0.020271 0.087738 -0.000763 -0.041592 0.075022 -0.166614
*dt_144 -0.130164 0.223360 -0.025066 0.026473 -0.080531 0.016298 -0.087787 0.021446 0.007608 0.008365 0.035926 -0.082707 -0.008926 0.026201 0.044584 -0.024577 -0.015555 0.154880 -0.064652 0.022025 -0.012688 0.099917 -0.071507 0.205337 -0.071891 0.011001 -0.070242 0.036577 -0.015012 0.035586 0.019954 0.083528 0.015323 -0.098674 -0.001693 -0.146292 0.038055 -0.078891 0.099085 0.026125 -0.068116 -0.030432 -0.004170 -0.128314 -0.018982 0.084845 0.007341 -0.044192 0.069872 -0.175697
*dt_145 -0.215568 0.328681 -0.012553 0.021422 -0.120734 0.031051 -0.104515 0.031283 0.019879 0.011828 0.031879 -0.125721 -0.029089 0.040618 0.061561 -0.016353 -0.020487 0.226753 -0.085475 0.033687 -0.006751 0.138274 -0.111051 0.307100 -0.091139 0.004608 -0.103326 0.027874 -0.024222 0.045547 0.036214 0.115597 0.022133 -0.152283 -0.015465 -0.208010 0.035178 -0.121790 0.127887 0.036529 -0.097854 -0.068285 -0.023942 -0.183381 -0.033095 0.144865 0.018610 -0.059125 0.109859 -0.248324
*dt_146 -0.197779 0.305824 -0.014381 0.025409 -0.096890 0.029878 -0.109860 0.026644 0.013557 0.005029 0.036535 -0.114320 -0.014429 0.037259 0.063101 -0.023989 -0.000221 0.226890 -0.090112 0.032376 -0.020151 0.132242 -0.106763 0.294776 -0.101441 0.018497 -0.098925 0.038456 -0.023872 0.049720 0.041545 0.108867 0.037554 -0.136344 -0.015813 -0.192061 0.031284 -0.115207 0.136831 0.039835 -0.109403 -0.063492 -0.002908 -0.165359 -0.033778 0.131401 0.001091 -0.061727 0.100579 -0.221945
*dt_147 -0.202013 0.310318 -0.025919 0.031012 -0.122070 0.031998 -0.118569 0.031055 0.028879 0.013214 0.039342 -0.111966 -0.028850 0.048748 0.075851 -0.025294 -0.003910 0.229260 -0.096051 0.021193 -0.023855 0.149479 -0.108816 0.300189 -0.111235 0.028565 -0.109793 0.044951 -0.010732 0.051941 0.031280 0.109026 0.040597 -0.134402 -0.016276 -0.215894 0.027418 -0.120414 0.127561 0.043642 -0.114049 -0.067065 -0.008976 -0.184849 -0.046163 0.147325 0.008410 -0.062083 0.106201 -0.240351
*dt_148 -0.173084 0.253690 -0.021244 0.014089 -0.099537 0.017666 -0.099786 0.024521 0.018533 0.016549 0.022880 -0.094768 -0.026433 0.030072 0.066882 -0.031121 0.007258 0.180454 -0.061972 0.017742 -0.010327 0.121411 -0.084077 0.244891 -0.091402 0.021209 -0.081101 0.044667 -0.017572 0.037271 0.026163 0.093287 0.016641 -0.119049 -0.010493 -0.166734 0.025985 -0.088203 0.114588 0.042065 -0.097867 -0.043716 -0.002688 -0.151444 -0.031204 0.118857 0.018662 -0.051584 0.085909 -0.181580
*dt_149 -0.112406 0.171162 -0.004499 0.010358 -0.059598 0.009114 -0.043602 0.016974 0.011892 0.009571 0.019415 -0.063278 -0.005792 0.021261 0.021635 -0.014450 -0.013299 0.114636 -0.059611 0.031363 -0.027394 0.070143 -0.072614 0.152162 -0.038564 0.012653 -0.055584 0.015197 -0.019555 0.033678 0.027535 0.070182 0.024470 -0.065309 0.001344 -0.117324 0.020110 -0.063313 0.070045 0.017543 -0.058642 -0.042197 0.005429 -0.076993 -0.036997 0.064399 0.007635 -0.018058 0.054639 -0.129040
*dt_150 -0.070115 0.098508 -0.017938 -0.003247 -0.046887 -0.001602 -0.032845 0.018690 0.008572 0.012241 0.012364 -0.040750 0.000640 0.017946 0.014285 -0.003755 0.001083 0.050523 -0.044085 0.027950 -0.005342 0.053595 -0.033198 0.092325 -0.023295 -0.003552 -0.024676 0.002482 -0.012989 0.014088 0.024264 0.039665 0.004932 -0.039675 -0.006091 -0.074739 0.006236 -0.047058 0.044626 0.001420 -0.026851 -0.014980 -0.014988 -0.038436 -0.024511 0.052707 0.003580 -0.023900 0.034274 -0.090312
*dt_151 -0.240058 0.380331 -0.021315 0.033771 -0.143388 0.016727 -0.138092 0.030375 0.038227 0.012900 0.041561 -0.156174 -0.020174 0.062041 0.066384 -0.024765 0.005355 0.283285 -0.096884 0.042006 -0.018751 0.171392 -0.155248 0.347115 -0.127828 0.022714 -0.134890 0.044483 -0.023425 0.057636 0.052754 0.135649 0.031081 -0.174461 -0.029573 -0.251533 0.036284 -0.136190 0.149245 0.048058 -0.120987 -0.077817 -0.001530 -0.214824 -0.052856 0.161521 0.023679 -0.070349 0.114022 -0.285267
*dt_152 -0.285408 0.433714 -0.042041 0.036494 -0.160792 0.033975 -0.161529 0.038092 0.045826 0.015689 0.070080 -0.156709 -0.041734 0.059374 0.098630 -0.044902 0.000974 0.320483 -0.126548 0.057130 -0.028935 0.195228 -0.161291 0.431259 -0.137646 0.020027 -0.161080 0.074061 -0.013230 0.052441 0.062885 0.179896 0.041216 -0.203059 -0.034329 -0.292647 0.067178 -0.165217 0.189610 0.072003 -0.160123 -0.102465 -0.014304 -0.263891 -0.036534 0.195628 0.016894 -0.085448 0.141887 -0.329471
*dt_153 -0.148978 0.229888 -0.018992 0.014491 -0.090627 0.022591 -0.083121 0.004966 0.016114 0.015468 0.027888 -0.082788 -0.024076 0.034735 0.040935 -0.021112 0.003717 0.165147 -0.070550 0.029287 -0.016546 0.105374 -0.082803 0.211769 -0.069822 0.001525 -0.084293 0.028464 -0.026703 0.026493 0.034283 0.080833 0.029653 -0.114146 -0.019341 -0.154039 0.037343 -0.079997 0.110169 0.025046 -0.081175 -0.036552 -0.008630 -0.128140 -0.034125 0.111852 0.013524 -0.045047 0.085067 -0.176842
*dt_154 -0.029445 0.069549 0.001906 0.001235 -0.016319 -0.003936 -0.022759 0.000210 0.017392 0.010942 0.004909 -0.023782 0.001107 0.020126 0.012650 -0.006775 -0.006464 0.035796 -0.028940 0.014832 -0.000576 0.025472 -0.020254 0.054698 -0.014732 -0.000240 -0.010847 0.007200 -0.005473 -0.003767 0.016502 0.031872 -0.003963 -0.019459 0.010021 -0.030005 0.002865 -0.032556 0.021562 -0.002679 -0.026606 -0.015578 -0.000648 -0.035428 0.001785 0.026431 0.009537 -0.010490 0.014630 -0.041317
*dt_155 -0.123956 0.188504 -0.006787 0.019728 -0.063264 0.001886 -0.067884 0.017166 0.002042 0.020872 0.018506 -0.079394 -0.003571 0.015574 0.037455 -0.029965 -0.006475 0.124713 -0.049804 0.012256 -0.011091 0.089065 -0.077532 0.169438 -0.058626 0.011790 -0.061915 0.019582 -0.019489 0.027704 0.025544 0.068157 0.006096 -0.093381 -0.012093 -0.119223 0.034494 -0.072437 0.069631 0.018958 -0.063405 -0.032457 -0.010163 -0.103957 -0.029101 0.080737 0.004946 -0.031253 0.061979 -0.134340
*dt_156 -0.215145 0.309976 -0.026597 0.016144 -0.122752 0.028421 -0.123533 0.027329 0.025512 0.019641 0.042501 -0.127856 -0.029639 0.039152 0.058123 -0.029297 -0.009370 0.246204 -0.091850 0.037254 -0.029160 0.153172 -0.118203 0.304880 -0.099928 0.014513 -0.112317 0.051078 -0.028050 0.035967 0.052690 0.117580 0.036815 -0.138228 -0.019295 -0.196803 0.050423 -0.114823 0.142949 0.041648 -0.116837 -0.063811 -0.002656 -0.175210 -0.052891 0.144199 0.020477 -0.066652 0.102926 -0.223370
*dt_157 -0.183249 0.293969 -0.017928 0.026927 -0.109895 0.018006 -0.113881 0.028378 0.018837 0.010949 0.047329 -0.126156 -0.026887 0.036329 0.049121 -0.018521 -0.000479 0.218057 -0.073497 0.024415 -0.020609 0.145378 -0.111646 0.294912 -0.102294 0.024324 -0.099136 0.043914 -0.010005 0.042786 0.031566 0.123775 0.040984 -0.143071 -0.011664 -0.181031 0.039388 -0.100848 0.131303 0.036153 -0.102259 -0.064097 -0.003633 -0.163335 -0.048680 0.135545 0.001480 -0.058298 0.095284 -0.229356
*dt_158 -0.013207 -0.002777 -0.009779 -0.000500 -0.024498 -0.008335 -0.003734 -0.011723 -0.004852 0.007686 -0.005438 -0.011039 0.001441 0.010243 -0.009309 -0.021565 0.012556 0.006888 0.010580 -0.007340 0.005111 0.001908 0.005978 -0.002485 0.005674 -0.014258 0.004128 -0.009069 -0.000292 -0.002775 0.007857 -0.012984 -0.000175 -0.020229 0.003279 0.004722 0.008508 -0.008173 -0.002844 0.004336 0.015265 0.008831 -0.007926 0.003348 -0.002529 0.008417 0.008486 0.011653 -0.007057 0.004239
*dt_159 -0.135746 0.202246 -0.014041 0.012637 -0.079728 0.014513 -0.068231 0.022186 0.003460 0.010333 0.017727 -0.068339 -0.009211 0.036103 0.052746 -0.012524 0.003280 0.150557 -0.045811 0.016644 -0.014473 0.092921 -0.061832 0.198805 -0.066097 0.001172 -0.061998 0.022913 -0.013469 0.024160 0.024405 0.084370 0.027664 -0.093132 -0.013305 -0.123944 0.018887 -0.077183 0.098326 0.033527 -0.074253 -0.038115 0.004466 -0.110757 -0.020627 0.080660 0.015770 -0.044454 0.070385 -0.140344
*dt_160 -0.080546 0.136766 -0.009426 0.007304 -0.053040 0.014630 -0.050244 0.006078 0.011568 -0.004228 0.022872 -0.046037 -0.001450 0.025806 0.021284 -0.006213 -0.015538 0.106648 -0.043866 0.001426 -0.003772 0.058259 -0.039117 0.132836 -0.044109 0.013017 -0.047911 0.027518 -0.003496 0.019194 0.029797 0.057140 0.012355 -0.050576 -0.009454 -0.088918 0.028795 -0.051467 0.064939 0.028064 -0.056260 -0.021189 -0.011750 -0.083700 -0.010305 0.069885 -0.004339 -0.039532 0.047016 -0.111889
*dt_161 -0.099475 0.173773 -0.010808 0.016044 -0.059369 0.006209 -0.056284 0.013451 -0.000414 0.003652 0.008881 -0.071085 -0.010439 0.023252 0.026996 -0.009581 -0.014835 0.113707 -0.039878 -0.001622 -0.011567 0.077649 -0.053556 0.151591 -0.036301 0.003629 -0.064152 0.021568 0.003060 0.019303 0.019449 0.060179 0.006887 -0.082404 -0.014739 -0.091912 0.011561 -0.043786 0.079349 0.024810 -0.040220 -0.035997 -0.008063 -0.083958 -0.027727 0.071596 0.018229 -0.026776 0.041402 -0.102759
*dt_162 -0.089220 0.131123 -0.008184 0.004552 -0.032863 -0.001449 -0.032927 0.019348 0.008061 0.000938 0.010090 -0.048693 -0.009130 0.011336 0.022253 -0.005204 0.000456 0.083096 -0.043592 0.015025 -0.013864 0.044208 -0.044845 0.125161 -0.046388 0.012159 -0.039912 0.014728 -0.010544 0.033139 0.021571 0.043225 0.009469 -0.052529 -0.003719 -0.075841 0.005696 -0.032500 0.040034 0.017222 -0.031857 -0.018909 -0.005020 -0.076141 -0.020776 0.052050 0.001757 -0.030481 0.042951 -0.100309
*dt_163 -0.040526 0.076105 0.002660 0.004726 -0.041358 0.005107 -0.020978 -0.009847 0.003456 -0.002437 -0.001166 -0.017079 -0.009085 0.011006 0.018073 -0.019702 -0.008641 0.027638 0.002247 -0.010673 -0.001222 0.036549 -0.016362 0.071576 -0.027542 -0.008863 -0.020879 0.000463 0.019323 0.014675 0.017403 0.022176 0.009015 -0.052580 -0.012388 -0.034880 -0.001967 -0.015003 0.016109 0.022554 -0.015448 -0.015318 -0.025439 -0.024591 -0.018638 0.023269 0.023271 0.006079 -0.002093 -0.043980
*dt_164 -0.064517 0.125765 0.002345 0.019499 -0.045416 0.010545 -0.040345 0.016548 0.012665 0.004331 0.011227 -0.048460 -0.006398 0.017959 0.030629 -0.008148 0.000162 0.080447 -0.026353 0.009742 -0.004650 0.043539 -0.050334 0.115177 -0.032746 0.011299 -0.035753 0.018955 -0.002378 0.016250 0.020041 0.053630 0.005665 -0.057271 -0.009465 -0.061320 0.023191 -0.026476 0.058350 0.016258 -0.048800 -0.028703 -0.000511 -0.070095 -0.020952 0.053956 -0.009047 -0.026249 0.029006 -0.095116
*dt_165 -0.131680 0.222541 -0.021399 0.023332 -0.078469 0.013187 -0.078038 0.002148 0.006118 0.019969 0.013312 -0.090366 -0.026534 0.027740 0.045883 -0.025249 0.003017 0.161168 -0.053083 0.011213 -0.012572 0.102643 -0.079427 0.198590 -0.053533 0.003359 -0.079124 0.032587 -0.011352 0.019207 0.031029 0.071519 0.017732 -0.091888 -0.004549 -0.141591 0.029949 -0.083436 0.095170 0.038857 -0.053334 -0.031706 -0.015858 -0.126961 -0.022949 0.087754 0.006063 -0.043673 0.066941 -0.152953
*dt_166 -0.060012 0.084060 0.004287 0.003371 -0.022451 0.003725 -0.019716 0.004792 0.005776 0.001312 0.011324 -0.036748 -0.002418 0.001975 0.023648 -0.003657 0.000611 0.050360 -0.016092 0.003582 -0.012009 0.040104 -0.033085 0.084683 -0.023323 -0.001803 -0.019194 0.001733 0.000822 0.007566 0.019457 0.023777 0.008894 -0.041353 0.002359 -0.053226 0.006579 -0.025188 0.032152 0.012059 -0.019373 -0.013518 0.003419 -0.040146 -0.015705 0.042000 0.008675 -0.012256 0.028834 -0.066434
*dt_167 -0.088095 0.139463 -0.008401 0.006926 -0.038309 0.020034 -0.045825 0.009087 0.005658 0.013781 0.010800 -0.051087 -0.007609 0.003860 0.040916 -0.002138 -0.006383 0.106939 -0.036284 0.017151 -0.004843 0.056276 -0.056901 0.127934 -0.028303 0.011917 -0.050975 0.010020 -0.018405 0.027464 0.029301 0.058009 0.008564 -0.051607 -0.019140 -0.100725 0.024538 -0.052197 0.056526 0.013676 -0.039155 -0.023965 -0.002504 -0.070799 -0.007446 0.064722 0.004458 -0.036582 0.041820 -0.110265
*dt_168 -0.235058 0.377621 -0.019819 0.029869 -0.152628 0.013970 -0.111418 0.031889 0.012557 0.021536 0.040910 -0.142623 -0.029418 0.057249 0.085954 -0.043059 -0.010708 0.270659 -0.103436 0.019102 -0.012566 0.179787 -0.124694 0.355664 -0.092184 0.020622 -0.125216 0.033536 -0.013852 0.065160 0.042620 0.137527 0.036477 -0.181578 -0.017023 -0.226439 0.057970 -0.132525 0.169180 0.045512 -0.130916 -0.064557 -0.012131 -0.213448 -0.047173 0.167327 0.020008 -0.075994 0.131973 -0.277148
*dt_169 -0.098261 0.158285 -0.010297 0.011714 -0.054514 0.000734 -0.062906 0.006315 0.008058 0.000555 0.029038 -0.057162 -0.001795 0.029824 0.032376 -0.012705 -0.006379 0.113682 -0.041812 0.016524 -0.011160 0.075399 -0.061739 0.151775 -0.045154 0.000442 -0.042461 0.011732 -0.016779 0.011318 0.025542 0.067596 0.006334 -0.074980 -0.018457 -0.105803 0.028090 -0.058468 0.059204 0.024798 -0.053693 -0.034907 0.002347 -0.080322 -0.028477 0.057864 0.001992 -0.031639 0.053785 -0.113536
*dt_170 -0.120939 0.181533 -0.005322 0.019336 -0.071770 0.008847 -0.058699 0.005273 0.023644 0.014443 0.031369 -0.082735 -0.016718 0.020191 0.042078 -0.028471 -0.009598 0.142072 -0.050801 0.032220 -0.015255 0.087028 -0.056811 0.192614 -0.051383 -0.002561 -0.055980 0.033004 -0.012841 0.027474 0.035491 0.076850 0.010271 -0.091303 -0.020036 -0.134239 0.024739 -0.061302 0.072805 0.036095 -0.056497 -0.040064 -0.012283 -0.106259 -0.026941 0.077178 0.011350 -0.044647 0.061931 -0.143539
*dt_171 -0.185463 0.299111 -0.010888 0.015178 -0.127378 0.029507 -0.118600 0.027307 0.014840 0.005413 0.049271 -0.103219 -0.028527 0.046882 0.059391 -0.025669 0.005865 0.204625 -0.095079 0.031649 -0.018128 0.144359 -0.114205 0.282067 -0.092293 0.008009 -0.095444 0.034103 -0.007407 0.031274 0.044971 0.112579 0.028694 -0.131996 -0.005587 -0.193702 0.038910 -0.105247 0.129757 0.036080 -0.095947 -0.054906 -0.015492 -0.173015 -0.038094 0.133697 0.015866 -0.047419 0.099831 -0.217653
*dt_172 -0.362933 0.587415 -0.036057 0.035816 -0.213292 0.040909 -0.190431 0.038810 0.029571 0.017641 0.084633 -0.214224 -0.026407 0.080147 0.115771 -0.049283 -0.007817 0.429075 -0.160773 0.068202 -0.024577 0.261607 -0.199157 0.553095 -0.180358 0.024318 -0.186626 0.092271 -0.026021 0.088426 0.075038 0.225245 0.047566 -0.266450 -0.023785 -0.360825 0.056048 -0.212494 0.245518 0.076224 -0.204564 -0.100950 -0.020778 -0.332828 -0.070824 0.258253 0.030706 -0.112962 0.188886 -0.433847
*dt_173 -0.164754 0.273164 -0.025060 0.015503 -0.087266 0.012012 -0.083584 0.014817 0.011595 0.020627 0.041516 -0.105152 -0.023439 0.035724 0.055914 -0.022356 0.002710 0.195464 -0.074994 0.039810 -0.025359 0.117405 -0.095241 0.245175 -0.068739 0.013179 -0.087394 0.028988 -0.009991 0.044927 0.044584 0.104865 0.033361 -0.119741 -0.019033 -0.180769 0.032178 -0.106473 0.110092 0.043059 -0.093046 -0.061507 -0.000096 -0.153402 -0.034125 0.123230 0.003208 -0.060934 0.086673 -0.197655
*dt_174 -0.204922 0.273560 -0.019982 0.019301 -0.120352 0.020337 -0.112940 0.005680 0.024797 0.012060 0.042857 -0.096277 -0.007440 0.038670 0.068246 -0.043352 -0.001262 0.201657 -0.062579 0.037577 -0.023099 0.140047 -0.092796 0.274269 -0.084951 0.002142 -0.105620 0.044826 -0.009960 0.027742 0.047540 0.109362 0.026485 -0.129013 -0.022979 -0.195026 0.024926 -0.114920 0.134782 0.035988 -0.093240 -0.041178 -0.008242 -0.168765 -0.036684 0.134258 0.016344 -0.044026 0.080543 -0.205624
*dt_175 -0.207643 0.314340 -0.027892 0.020394 -0.119689 0.022257 -0.116003 0.020950 0.033871 0.006856 0.030019 -0.112684 -0.020853 0.040884 0.075089 -0.034466 -0.000261 0.218789 -0.078841 0.029189 -0.012728 0.147088 -0.122036 0.300696 -0.102024 0.023086 -0.104047 0.044542 -0.028544 0.031596 0.045454 0.114885 0.030971 -0.135910 -0.016767 -0.206241 0.032010 -0.113379 0.140152 0.031574 -0.095608 -0.045491 0.000288 -0.170106 -0.045582 0.131474 0.009353 -0.064014 0.103050 -0.235311
*dt_176 -0.045935 0.090718 -0.017063 -0.006244 -0.032009 0.000494 -0.023960 0.003662 -0.002216 -0.005195 0.005632 -0.017238 -0.010454 0.005842 0.019638 -0.005417 -0.006681 0.046956 -0.026211 0.020682 -0.001068 0.035560 -0.034430 0.067950 -0.023263 0.011021 -0.030336 0.003450 -0.009235 0.024237 0.018489 0.024046 0.010049 -0.037358 -0.009062 -0.061596 0.011094 -0.038820 0.042806 0.012432 -0.020208 -0.008846 -0.003578 -0.038629 -0.008363 0.028670 0.000045 -0.023229 0.036349 -0.069428
*dt_177 -0.130582 0.208056 -0.007088 0.008060 -0.067606 0.018869 -0.064091 0.008945 0.004890 0.007898 0.031882 -0.078994 -0.011060 0.029284 0.044062 -0.021696 -0.001927 0.150951 -0.064903 0.028299 -0.015765 0.092271 -0.066300 0.195585 -0.051542 0.009685 -0.080456 0.030917 -0.020591 0.017749 0.032088 0.084296 0.014484 -0.102010 -0.024987 -0.131723 0.028465 -0.081530 0.083745 0.021343 -0.066203 -0.030924 -0.017740 -0.119176 -0.034352 0.097482 0.015325 -0.045039 0.070810 -0.155554
*dt_178 -0.207781 0.327219 -0.027721 0.033694 -0.121611 0.027226 -0.107379 0.011715 0.011941 0.004433 0.034635 -0.127395 -0.029297 0.046477 0.063527 -0.038063 -0.002175 0.225422 -0.098214 0.026019 -0.015026 0.143130 -0.113794 0.305920 -0.100222 0.007030 -0.115747 0.033258 -0.031341 0.045094 0.039588 0.134865 0.043326 -0.154097 -0.017301 -0.205761 0.038473 -0.104377 0.146103 0.034327 -0.117562 -0.061218 -0.005518 -0.168734 -0.038472 0.142835 0.014644 -0.053611 0.096626 -0.232784
*dt_179 -0.146787 0.233579 -0.013478 0.008614 -0.082839 0.004459 -0.086962 0.015880 0.021492 0.001529 0.039482 -0.081928 -0.022931 0.028091 0.057810 -0.010402 0.006809 0.159880 -0.054980 0.027361 -0.002922 0.099520 -0.091474 0.225215 -0.062651 0.020753 -0.067198 0.029224 -0.014414 0.031757 0.023215 0.083934 0.032407 -0.087253 -0.017141 -0.138033 0.024011 -0.077826 0.100235 0.030367 -0.070854 -0.042733 -0.000962 -0.117160 -0.026429 0.107938 -0.000790 -0.030936 0.062604 -0.175861
*dt_180 -0.153938 0.243455 -0.016135 0.024975 -0.089596 0.024945 -0.088907 0.020708 0.008444 0.007103 0.025146 -0.093090 -0.012461 0.029832 0.043453 -0.030908 -0.003206 0.185549 -0.080289 0.025442 -0.017305 0.107306 -0.093315 0.233499 -0.069701 0.023501 -0.083428 0.039496 -0.013140 0.036955 0.036377 0.095905 0.031286 -0.115809 -0.017384 -0.157896 0.036091 -0.089574 0.112264 0.043996 -0.076200 -0.035761 -0.008170 -0.141519 -0.035013 0.114792 0.006425 -0.041408 0.071402 -0.187696
*dt_181 -0.199884 0.309499 -0.027472 0.015864 -0.122340 0.015161 -0.105721 0.015748 0.028496 0.023906 0.049463 -0.106813 -0.022466 0.033503 0.058161 -0.018684 -0.003749 0.224916 -0.088039 0.031861 -0.026393 0.137752 -0.101334 0.286176 -0.091665 0.014342 -0.099339 0.050463 -0.025862 0.049836 0.035114 0.115040 0.027026 -0.141398 -0.025738 -0.206321 0.028281 -0.103390 0.128376 0.027224 -0.091159 -0.065104 -0.002609 -0.182073 -0.033814 0.130391 0.006867 -0.048074 0.097825 -0.223039
*dt_182 -0.221057 0.356804 -0.027841 0.035958 -0.135782 0.036747 -0.113152 0.012564 0.032804 0.010258 0.050718 -0.138410 -0.009378 0.051661 0.069779 -0.035150 -0.011846 0.262312 -0.103696 0.041691 0.001874 0.153599 -0.127467 0.341923 -0.092332 0.010875 -0.120496 0.048290 -0.030897 0.047391 0.042691 0.132030 0.044367 -0.168221 -0.015663 -0.231604 0.035485 -0.119410 0.157576 0.043501 -0.131046 -0.073105 -0.000521 -0.208819 -0.048110 0.144401 0.011679 -0.073125 0.112009 -0.249942
*dt_183 -0.157388 0.235796 -0.018474 0.018392 -0.092662 0.010760 -0.083655 0.020777 0.009267 0.017709 0.026898 -0.086174 -0.015966 0.039716 0.046527 -0.027996 0.002705 0.175375 -0.059412 0.015304 -0.010016 0.115029 -0.089380 0.228085 -0.077952 0.019268 -0.087400 0.019952 -0.018315 0.039059 0.026034 0.093346 0.021961 -0.115596 -0.006509 -0.148235 0.029804 -0.081342 0.099783 0.042174 -0.087280 -0.040413 -0.012588 -0.135510 -0.025924 0.092832 -0.002770 -0.049500 0.063929 -0.179007
*dt_184 -0.148338 0.234907 -0.017995 0.019406 -0.105713 0.007776 -0.088969 0.003075 0.023309 0.019588 0.022650 -0.116516 -0.026559 0.034603 0.035880 -0.013521 -0.025899 0.160853 -0.069915 0.016976 0.002587 0.121620 -0.076023 0.237696 -0.053635 0.008613 -0.080114 0.042409 -0.011749 0.019986 0.021016 0.091143 0.018939 -0.104261 -0.015237 -0.148147 0.049164 -0.083864 0.094097 0.046695 -0.083615 -0.033263 -0.002270 -0.153121 -0.025753 0.100931 0.008581 -0.041924 0.090677 -0.167387
*dt_185 -0.124361 0.189718 -0.001083 0.018968 -0.067637 0.016070 -0.048440 0.021836 -0.000932 0.006820 0.015478 -0.084527 -0.011324 0.017190 0.038515 -0.007422 -0.006718 0.124952 -0.055971 0.019318 -0.004532 0.075058 -0.068581 0.167656 -0.058308 0.019524 -0.062802 0.030818 -0.009794 0.031331 0.024426 0.074106 0.011135 -0.092651 -0.011681 -0.123592 0.026008 -0.054792 0.062796 0.026794 -0.053549 -0.034966 0.004823 -0.092184 -0.017276 0.092771 0.001323 -0.025288 0.069030 -0.121252
*dt_186 -0.233583 0.357483 -0.022286 0.018936 -0.133209 0.016462 -0.137230 0.023261 0.032608 0.018766 0.047853 -0.149560 -0.024101 0.045675 0.068341 -0.041801 -0.005402 0.273265 -0.113717 0.049166 -0.017146 0.167532 -0.132635 0.345200 -0.127010 0.017222 -0.112643 0.045116 -0.024076 0.041162 0.047581 0.146139 0.042600 -0.151296 -0.028909 -0.237266 0.043213 -0.125859 0.163211 0.046920 -0.105192 -0.066601 0.004495 -0.214216 -0.042536 0.159361 0.016506 -0.080387 0.102667 -0.258138
*dt_187 -0.263073 0.407909 -0.029370 0.035633 -0.170213 0.023730 -0.152098 0.012903 0.017356 0.008149 0.040236 -0.167228 -0.032904 0.064236 0.078291 -0.036267 -0.023865 0.302485 -0.115886 0.044500 -0.013057 0.186999 -0.144797 0.392784 -0.122265 0.031287 -0.141190 0.055573 -0.021969 0.057618 0.058050 0.152325 0.037484 -0.183325 -0.025171 -0.255000 0.042117 -0.144174 0.187951 0.055780 -0.121923 -0.074628 -0.025904 -0.240296 -0.039773 0.191677 0.026823 -0.065311 0.134794 -0.294071
*dt_188 -0.128978 0.193100 -0.018715 0.010361 -0.078454 0.013745 -0.061952 0.015865 0.010578 0.016989 0.022367 -0.079571 0.001429 0.019509 0.045893 -0.016677 0.009307 0.136821 -0.051849 0.029368 -0.018700 0.097879 -0.070778 0.188997 -0.041918 0.020906 -0.061476 0.038722 -0.006188 0.026492 0.027840 0.073638 0.013503 -0.081449 -0.005232 -0.135016 0.033460 -0.077895 0.078514 0.021649 -0.067474 -0.029627 0.000852 -0.106706 -0.014478 0.082378 0.014181 -0.038347 0.069824 -0.132209
*dt_189 -0.329792 0.510349 -0.021364 0.030513 -0.186618 0.041588 -0.174534 0.029319 0.021086 0.015267 0.074514 -0.196874 -0.029782 0.065439 0.106329 -0.043881 -0.021270 0.363614 -0.131616 0.059738 -0.033392 0.232189 -0.184241 0.487176 -0.154065 0.020627 -0.164123 0.067956 -0.035259 0.056350 0.060882 0.198639 0.048404 -0.229031 -0.032634 -0.309815 0.068277 -0.185113 0.202128 0.063738 -0.174758 -0.088086 -0.021141 -0.277948 -0.051111 0.220542 0.017365 -0.098862 0.152105 -0.374137
*dt_190 -0.165436 0.254853 -0.022920 0.015422 -0.104561 0.023603 -0.090704 0.017212 0.026415 0.005452 0.034416 -0.104461 -0.023563 0.043204 0.050093 -0.017336 -0.009548 0.178390 -0.075402 0.032189 -0.004970 0.109795 -0.093116 0.255770 -0.084415 0.024665 -0.083818 0.034747 -0.014110 0.042740 0.038841 0.096397 0.013266 -0.121932 -0.015754 -0.153691 0.035938 -0.075846 0.098749 0.033874 -0.082814 -0.045729 -0.001736 -0.154212 -0.020606 0.100931 0.001682 -0.042865 0.085798 -0.193253
*dt_191 -0.175101 0.281887 -0.021589 0.013166 -0.102168 0.026473 -0.098531 0.026043 0.028854 0.005225 0.033124 -0.106093 -0.023500 0.030791 0.054865 -0.026733 -0.011593 0.206449 -0.084145 0.021637 -0.014698 0.113128 -0.101689 0.284958 -0.091347 0.006974 -0.109941 0.041697 -0.014105 0.044762 0.041690 0.110803 0.026002 -0.135936 -0.010181 -0.179089 0.036203 -0.092423 0.109432 0.038126 -0.095678 -0.058951 -0.016242 -0.153405 -0.041342 0.114500 0.003178 -0.041752 0.085116 -0.206419
*dt_192 -0.180651 0.267637 -0.028304 0.007066 -0.111015 0.015059 -0.089244 0.014813 0.018040 0.017308 0.042998 -0.107321 -0.006286 0.035624 0.051461 -0.028047 -0.006449 0.188926 -0.083996 0.022975 -0.004474 0.116207 -0.107392 0.248963 -0.079309 0.015411 -0.084705 0.045362 -0.012009 0.038141 0.037799 0.102578 0.024602 -0.128081 -0.007835 -0.184522 0.028634 -0.095004 0.116330 0.033908 -0.083970 -0.049397 -0.000630 -0.140628 -0.038580 0.109289 0.018936 -0.051552 0.075808 -0.205489
*dt_193 -0.085492 0.136890 -0.004601 0.016965 -0.053878 -0.000913 -0.042349 -0.002520 -0.001933 0.002122 0.024216 -0.044974 -0.008272 0.026765 0.033678 -0.006989 0.003951 0.100477 -0.031700 0.019971 -0.002349 0.057291 -0.041454 0.125467 -0.051596 0.005046 -0.054741 0.014151 0.003980 0.011332 0.029012 0.045842 0.005642 -0.059890 -0.015222 -0.096860 0.012102 -0.049041 0.056638 0.024127 -0.038290 -0.017316 -0.017059 -0.074074 -0.018935 0.062840 0.014435 -0.027000 0.042824 -0.097976
*dt_194 -0.089598 0.142972 -0.019223 0.005825 -0.055880 0.012563 -0.049807 0.009028 0.017884 0.000687 0.018722 -0.047476 -0.015363 0.012584 0.033171 -0.021750 -0.002353 0.114087 -0.041189 0.018711 -0.007159 0.074644 -0.051435 0.138919 -0.039911 0.005333 -0.060693 0.009029 -0.005665 0.020729 0.011339 0.042617 0.022299 -0.064269 -0.016401 -0.103176 0.007787 -0.055696 0.067522 0.016822 -0.050003 -0.025295 0.001423 -0.084067 -0.019852 0.064886 -0.005893 -0.017170 0.059221 -0.100491
*dt_195 -0.132283 0.227134 -0.022053 0.007474 -0.098113 0.024741 -0.087122 0.013656 0.007562 0.014631 0.036411 -0.074052 -0.019312 0.026139 0.055146 -0.021372 -0.004703 0.139355 -0.070432 0.019420 -0.020935 0.088405 -0.085499 0.199878 -0.056576 0.011302 -0.076848 0.022149 -0.025000 0.035684 0.036108 0.079255 0.037208 -0.096199 -0.010369 -0.149002 0.032974 -0.073036 0.095556 0.010642 -0.072630 -0.028436 -0.023656 -0.103211 -0.022901 0.092559 0.014766 -0.044395 0.076167 -0.167800
*dt_196 -0.150709 0.252793 -0.015764 0.004685 -0.110799 0.012628 -0.086140 0.016085 0.010911 0.009340 0.042547 -0.087899 -0.018079 0.035225 0.057138 -0.030135 0.001158 0.148474 -0.068956 0.019659 -0.005054 0.114528 -0.094269 0.220284 -0.067098 -0.000343 -0.069539 0.030344 -0.032318 0.040485 0.026855 0.089315 0.036725 -0.100673 -0.007960 -0.158453 0.046375 -0.094388 0.104414 0.016144 -0.085333 -0.045365 -0.024592 -0.114847 -0.035170 0.100203 0.017250 -0.042679 0.075316 -0.187266
*dt_197 -0.257378 0.386852 -0.026189 0.034842 -0.155770 0.028092 -0.146421 0.025648 0.024383 0.013383 0.061616 -0.139509 -0.027414 0.050936 0.087893 -0.043800 0.008066 0.290372 -0.120331 0.044007 -0.015867 0.177510 -0.143392 0.387262 -0.130462 0.022217 -0.139322 0.038061 -0.028727 0.060705 0.040492 0.143144 0.038924 -0.170681 -0.022692 -0.262972 0.043537 -0.150028 0.177124 0.044198 -0.142037 -0.087102 -0.014048 -0.230354 -0.055582 0.167151 0.025148 -0.066337 0.117109 -0.305424
*dt_198 -0.197089 0.292918 -0.028162 0.020125 -0.112759 0.028441 -0.094837 0.019049 0.034037 0.016704 0.038265 -0.119692 -0.030303 0.040318 0.061925 -0.020591 -0.015620 0.227002 -0.083930 0.033231 -0.011408 0.128512 -0.104116 0.292671 -0.109340 0.021223 -0.115913 0.034807 -0.022546 0.038177 0.035310 0.112988 0.039640 -0.141069 -0.008816 -0.197341 0.019283 -0.114954 0.128682 0.043055 -0.099842 -0.049998 -0.011688 -0.178386 -0.036911 0.136822 0.014263 -0.045008 0.101217 -0.225994
*dt_199 -0.128718 0.215277 -0.014832 0.025969 -0.092046 0.012079 -0.070561 0.011144 0.020787 0.001413 0.033682 -0.071067 -0.019507 0.031851 0.046852 -0.021378 -0.014171 0.157381 -0.067604 0.033054 -0.015004 0.095478 -0.080134 0.207231 -0.072746 0.012900 -0.069436 0.024924 -0.023524 0.035325 0.028602 0.077219 0.030398 -0.088882 -0.013397 -0.140152 0.034482 -0.068697 0.101607 0.018128 -0.066631 -0.046526 -0.008346 -0.119056 -0.026362 0.089539 0.005870 -0.030657 0.062383 -0.152512
*dt_200 -0.108277 0.181319 -0.006664 0.008245 -0.076178 0.019942 -0.066149 0.001751 0.017215 0.012059 0.012072 -0.074806 -0.021194 0.016965 0.051481 -0.020722 0.002793 0.128914 -0.053845 0.015401 0.002174 0.083890 -0.056799 0.169831 -0.042915 -0.001696 -0.051920 0.020560 -0.023563 0.016274 0.013940 0.078627 0.023770 -0.079124 -0.004419 -0.118755 0.021442 -0.078399 0.081749 0.017840 -0.051241 -0.024281 -0.020124 -0.087338 -0.027924 0.081975 0.018476 -0.032203 0.067589 -0.134180
*dt_201 -0.053094 0.075820 0.003934 0.003853 -0.028262 -0.013917 -0.030900 -0.016105 0.002455 0.003252 0.014972 -0.033615 -0.013622 0.024457 0.009238 0.006116 -0.010029 0.054451 -0.020115 0.012243 0.008068 0.047030 -0.026352 0.080623 -0.024596 0.007168 -0.014792 0.009002 0.004369 0.008654 0.011157 0.045253 0.004016 -0.032947 0.005051 -0.039846 0.023954 -0.028240 0.032593 0.024754 -0.012411 -0.014809 0.000542 -0.058152 0.000090 0.028718 -0.000058 -0.012834 0.026385 -0.052812
*dt_202 -0.100859 0.142541 -0.012787 0.009764 -0.061651 0.000681 -0.050604 0.012415 0.006878 0.013477 0.007367 -0.051287 -0.009349 0.018340 0.032398 -0.008947 0.005811 0.100510 -0.042786 0.015138 -0.012403 0.071205 -0.042383 0.142964 -0.045950 0.007157 -0.061535 0.026656 -0.005792 0.026569 0.021670 0.053375 0.013883 -0.070266 -0.013892 -0.091760 0.022868 -0.046623 0.062763 0.024199 -0.052804 -0.027037 -0.002839 -0.089111 -0.025472 0.068085 0.008231 -0.020921 0.048723 -0.105124
*dt_203 -0.066862 0.090973 -0.001405 0.007217 -0.024578 0.002747 -0.035218 -0.007359 0.002299 0.015844 0.014125 -0.022028 -0.010256 0.013965 0.023522 -0.023158 -0.014961 0.076639 -0.002143 0.000223 -0.004490 0.049283 -0.020781 0.099950 -0.018374 0.005785 -0.020616 0.009524 0.000808 0.001035 0.018552 0.038669 0.009106 -0.052274 -0.016907 -0.062335 0.002253 -0.028377 0.036979 0.029333 -0.012590 -0.019059 -0.004925 -0.061200 -0.014967 0.034065 -0.005905 -0.009251 0.019047 -0.051997
*dt_204 -0.196642 0.312874 -0.018987 0.015244 -0.124539 0.033723 -0.111795 0.014993 0.024973 0.013664 0.043018 -0.111079 -0.013100 0.040422 0.069991 -0.036403 -0.016907 0.224603 -0.098366 0.030621 -0.009715 0.137624 -0.104023 0.296339 -0.100168 0.024720 -0.104118 0.032059 -0.028391 0.034102 0.052542 0.121220 0.032791 -0.130262 -0.007336 -0.199919 0.043438 -0.105122 0.140449 0.043297 -0.115936 -0.064835 -0.017479 -0.176629 -0.048131 0.137166 0.011769 -0.065183 0.090870 -0.241165
*dt_205 -0.054629 0.074736 0.002478 -0.005729 -0.021758 0.013082 -0.013037 0.013744 0.010842 -0.002464 0.001074 -0.023189 -0.002821 -0.004793 0.005706 -0.010458 0.009557 0.057913 -0.013795 -0.002774 0.005985 0.030448 -0.028092 0.064240 -0.027768 0.000914 -0.028903 0.009913 -0.000798 0.010819 0.012896 0.016468 0.002602 -0.037478 0.005671 -0.035358 0.003973 -0.034297 0.030357 0.010041 -0.032008 -0.021228 -0.006810 -0.039717 -0.009097 0.025784 -0.008746 -0.011943 0.013744 -0.046939
*dt_206 0.020521 -0.023913 -0.003776 0.005125 0.024437 0.004417 0.004821 0.021250 0.003358 -0.002071 -0.006423 0.011662 -0.005661 0.001436 -0.023141 -0.007291 0.008710 -0.024756 -0.006131 -0.000037 -0.005310 -0.015563 0.013078 -0.017666 0.011488 -0.017907 0.001915 0.000351 -0.002900 -0.008635 -0.008972 -0.015612 -0.000728 0.022518 0.015348 0.010531 -0.009219 0.008033 -0.005668 -0.018931 -0.005948 -0.015253 -0.005346 0.010502 -0.003253 -0.003158 -0.003930 0.011800 -0.014160 0.010031
